{"momentum":0.1,"batchSize":1,"outputActivation":"softmax","hiddenActivation":"sigmoid","weights":[[],[18.45122,-6.665124,2.667613,6.978477,0.5378802,8.2698,30.48846,13.41284,-0.2529369,12.28973,5.333943,9.53898,-33.43944,3.931558,-15.23352,25.81522,-7.356187,6.20513,-26.57403,-5.160695,-0.6506181,5.875485,-14.52483,6.133317,5.741278,6.504591,28.002,-3.546087,-9.011827,-8.74159,12.22177,10.59869,-5.452361,10.93652,5.21252,30.95522,-6.63434,2.654729,3.184041,0.5306728,-0.06184629,4.371982,1.713283,3.972708,25.76535,-4.933474,4.252231,6.425445,-2.028244,-14.87645,-9.312474,18.99295,11.78212,-23.43914,4.796432,16.52591,5.909751,29.37391,-7.128829,-8.420543,6.926838,-10.63001,-4.926275,-5.651737,0.02135929,-9.637203,0.7614696,5.167305,-14.94973,-0.2569094,-2.151778,6.817628,0.4583067,6.701765,29.68994,17.83371,-0.3270735,4.807041,1.397769,7.34504,-50.01241,5.368425,-15.0273,10.07405,-14.44617,5.103531,17.64551,-8.611987,1.376225,18.80928,-20.37075,-17.87692,24.19745,-13.08388,0.1857616,3.458608,-6.354493,-0.2676983,13.71242,28.81186,27.1115,-18.17014,-16.81142,-29.2927,-11.69996,4.066416,-1.948367,-14.35755,2.313356,11.42281,33.37952,-21.07568,18.10225,4.644741,-15.74827,-14.17345,-6.709964,-23.13277,-22.7563,9.222692,-6.369483,7.822982,15.68743,13.51052,5.741628,-0.8881443,15.8753,12.29027,-0.9004674,-8.652486,9.470611,14.29854,11.17148,21.73407,40.03218,-13.66016,0.3292769,-5.641553,-20.56542,11.13183,-0.6584719,-14.40191,13.58001,17.35581,-4.729484,-3.548555,-1.636193,-5.637456,-1.652478,-5.043013,-4.12296,-9.211895,1.118409,2.934682,-21.68107,3.895376,1.088458,1.800969,8.040818,4.370407,1.730824,-1.834338,7.105847,2.956423,-1.340743,-0.1231812,-0.4906164,5.942369,-0.8995491,2.716839,-3.604346,-6.872489,-1.146625,-3.249487,25.37887,-0.9486697,0.3528234,2.469221,5.522582,7.583236,-6.421648,11.10902,0.4066429,-0.5619512,-2.334922,1.320367,5.181539,-13.23179,-0.1422,14.33078,-11.83989,1.620844,0.3277229,-5.001389,-1.613819,2.783592,-1.498551,-0.3388044,-0.09429952,0.8744684,-1.306447,3.629654,6.847462,-9.489901,-8.796366,-1.475962,0.1486569,16.99467,-2.269156,-6.09148,-8.310971,2.054113,0.04335508,0.330154,11.86323,2.239134,-2.118963,2.128275,5.57128,-6.911282,0.1385211,7.150995,3.704558,-5.024348,5.555332,1.429046,-6.409708,-2.074676,-2.149285,5.065711,1.686195,2.619105,0.1861765,0.053892,1.554884,-2.409122,-0.7884824,-4.249909,1.341573,-1.063074,-1.733774,0.8220398,0.5246455,-5.277107,-0.08019464,-2.414564,1.253214,5.880452,-0.6093333,5.620525,-0.3306599,7.360585,1.34215,-1.63788,2.98943,1.145474,-1.97666,1.391612,-6.274648,-3.810889,18.00681,-5.48951,7.330844,-1.3556,-13.15969,1.080904,2.574187,-11.00877,10.25445,-23.67034,-7.771236,-34.78586,-40.95891,-36.5763,21.34109,11.69032,-29.27221,-0.5672811,-6.69544,-10.46493,-10.32984,-1.909099,6.671329,16.26467,14.70516,-12.4933,21.68804,-33.08838,22.82396,24.9772,-11.67835,-12.25463,27.44818,57.04253,-33.99314,-12.09823,30.40986,4.950069,20.46354,4.041942,-5.914782,-2.179831,0.05876497,15.23792,-10.86059,22.69438,9.033566,-21.15404,16.45469,-13.31587,-37.03255,2.067462,-18.96225,14.65463,2.274613,-13.70665,22.4579,-9.387364,1.688066,-17.64701,7.854063,6.630259,-14.79644,-9.392149,-18.4494,21.75052,-5.272049,20.92329,32.53957,1.290844,0.474067,-3.841932,12.61884,7.160279,1.331191,-11.68723,-34.84072,26.92153,20.72794,-9.049554,33.17164,1.396683,-25.54292,10.98147,-2.581082,8.01757,-15.45222,-8.945039,-16.78096,14.81277,27.86957,10.72091,-6.684291,7.123653,-1.683677,14.04672,-5.546947,19.23981,20.30387,-17.18048,21.92818,-15.9348,-29.54241,1.69751,-3.79892,36.91758,-6.304464,-0.8260033,-0.9416794,-0.01924815,-24.56092,21.40598,-9.08186,39.96617,7.13872,15.55751,19.51841,-1.399609,-30.29554,6.270573,-19.24757,-23.4333,7.736991,-13.58959,-17.08159,43.00006,-5.764908,-17.01475,-8.361018,6.22043,-19.0435,14.07834,-7.80927,10.64955,-4.950044,1.537305,-24.98346,23.75072,-10.344,-3.235066,-1.825591,6.602467,-0.1215505,0.1133775,0.5851914,0.7883524,-2.090792,-6.390421,2.713398,2.981714,-5.357848,9.349325,-1.475853,-11.19933,4.082794,-8.203184,0.6042077,1.975209,-0.6395084,2.650697,2.574545,5.452813,-2.822936,-7.885901,-13.25024,-4.119443,11.79058,7.734117,-5.034328,9.436271,9.750929,-1.710727,1.043452,4.141661,-4.029792,-7.405567,0.5861666,-0.5462,3.074858,3.585917,-0.3777122,12.79658,-4.540994,-4.867096,-0.05007063,7.767902,-8.185724,-1.873577,-12.52795,-2.130642,-12.80616,-1.516117,0.697147,10.03915,2.056374,2.943183,-0.1686184,0.4544594,1.711373,-7.051664,-3.204075,16.43534,-11.69862,11.20848,6.696651,-4.627026,12.15817,5.439196,-4.277973,-15.46929,8.644762,-1.441228,-1.530166,12.01539,-6.072312,3.697378,5.316286,-7.938191,-3.311455,5.661326,1.35829,-8.306459,-1.707963,1.433838,11.63901,-0.2163606,-4.808781,10.79069,3.809643,6.657624,15.17698,-7.108073,2.134489,11.48967,-6.457591,-4.862713,-5.899795,8.931822,5.865483,-0.6343415,4.079533,11.8839,-1.426815,19.60486,-14.20439,3.3074,5.221346,5.299337,0.520292,4.070137,10.41751,4.305735,-1.350887,-1.054491,-9.203232,-6.91337,1.21544,-0.387251,7.120239,12.70004],[-5.113522,5.10798,-5.419836,5.418114,-3.447017,3.444688,-6.01719,6.014409,-4.669622,4.666956,5.826929,-5.831867,3.620132,-3.623601,-6.628603,6.6249,-4.668951,4.667283,-3.981326,3.979578,7.547024,-7.552104,-4.314109,4.311395,6.902995,-6.906288,-7.992342,7.988171,6.605732,-6.608509,4.266125,-4.271283,7.946681,-7.952147,-8.376252,8.371823,6.228817,-6.232639,3.81276,-3.814485]],"layerNodeCounts":[26,20,2],"learningRate":0.2}