{"momentum":0.1,"batchSize":1,"outputActivation":"softmax","hiddenActivation":"sigmoid","weights":[[],[5.720016,2.088989,-0.06391716,-2.491573,6.893781,6.977859,4.579136,23.60328,1.896881,-25.28941,22.77286,-7.208739,-3.419614,7.709393,1.243534,-10.09013,-3.440217,-13.7223,7.821054,-4.029067,-7.112695,5.697436,5.535054,15.92677,-4.37612,-2.794339,25.38354,-12.60938,1.190476,-6.110798,-5.012991,-10.56515,10.90453,2.1344,7.59654,-10.47443,-9.06523,-5.649739,4.011046,-12.35697,-9.862921,0.06091811,-14.28334,-11.42353,-1.0472,19.45783,-1.72217,-3.840953,-17.22153,20.33051,6.818045,-9.641236,-7.190134,8.533628,-11.2333,19.38292,-0.2436093,10.53611,-26.3365,-23.40365,-1.09287,-6.856121,-5.857649,-6.370275,-17.10056,13.46657,0.5402734,19.58677,19.67403,11.01759,5.093931,26.75437,2.334031,14.91494,21.02939,17.49984,12.5392,-10.70065,-5.561052,-3.07005,-6.509303,26.06756,-1.765402,3.846834,-6.568002,3.278538,10.62476,-27.32251,-53.51291,-0.5753431,-0.8448169,-1.805655,4.367698,21.51185,-19.86173,10.51057,27.64484,7.176025,14.74687,2.446319,-11.77925,7.940053,5.754265,22.90356,0.372068,7.652491,-16.98446,-14.25367,-12.42921,-7.263946,-23.38101,-11.73734,9.159236,0.1482562,3.102021,-1.470526,13.40908,-9.554245,-32.06075,-12.98721,11.22357,13.21573,5.55607,-6.478303,13.62674,22.05939,-12.38258,-9.999877,1.2116,-16.82868,17.88496,-6.749893,-1.459141,-1.178997,-14.2019,3.924857,-12.8265,-14.823,10.52365,8.173069,-19.5125,1.124087,-10.54183,12.91123,-10.69232,-2.157681,-0.3284843,-1.010387,0.1729651,0.4638295,5.974262,4.118961,8.856878,2.78204,-3.273358,0.6589205,-5.376029,-4.425683,7.019748,2.555943,1.339032,12.13062,3.503551,-10.76308,4.317391,1.115103,-2.234235,-12.29306,-1.976337,0.8405209,-1.825097,-3.157934,-0.1452633,-20.51808,12.80623,12.01649,2.154199,-12.01948,3.820131,-3.09077,-4.951365,7.372608,18.49466,1.361999,-11.24491,-1.726256,-0.7489986,3.929021,3.053227,-0.5385576,-2.323731,-0.6961028,10.97408,-11.68562,4.401702,2.598112,-16.38071,25.29264,-0.8207538,2.49517,-5.034401,-8.689469,16.56829,-1.342605,-8.241025,6.113364,10.76999,-0.5438477,2.9774,8.069868,7.252586,1.940477,-2.767665,-6.522442,-7.385855,-21.70938,18.82301,-17.06604,-16.07249,-0.07029504,-6.230972,-1.592165,13.51953,1.47164,-9.830959,-14.2171,10.78192,2.952667,-10.82847,-10.88168,-12.41761,-14.82727,-14.55046,9.038192,13.01803,-6.676593,11.68592,1.49054,4.810952,20.0704,-3.615907,19.15743,-0.3508919,9.472193,-2.749251,-0.2855092,15.06283,-20.17219,-9.5456,3.399081,-9.508016,-1.08147,-2.017226,-4.634095,20.23151,-7.888035,-2.12307,-3.575013,-5.179359,-6.451987],[-2.538478,2.538142,4.451468,-4.452591,5.368614,-5.369931,-5.140698,5.139564,3.446415,-3.447242,4.242334,-4.243281,-7.187963,7.186607,6.40653,-6.407547,-8.744442,8.743013,5.283027,-5.283883,-4.010965,4.010021,2.939627,-2.940374,1.576103,-1.57641,5.155283,-5.156508,5.301455,-5.302211,-4.801756,4.800992,-4.332142,4.331444,-5.046829,5.046071,5.800479,-5.801738,-2.85759,2.856786]],"layerNodeCounts":[13,20,2],"learningRate":0.2}