{"momentum":0.1,"batchSize":1,"outputActivation":"softmax","hiddenActivation":"sigmoid","weights":[[],[2.905649,1.582781,2.077082,-1.408636,-2.010551,1.911284,-0.8576968,-9.602611,4.278297,1.148073,2.113011,-1.875257,-2.778262,0.4125156,-1.99684,-4.56578,-2.600588,6.093921,4.247713,-5.165086,1.843528,0.3515511,-0.3318474,-0.04405813,-1.138198,1.321579,-1.335254,-9.718278,5.10719,-0.2743172,3.775925,-0.5161358,-2.959846,3.862341,-1.527418,-5.766553,-3.083709,5.881424,2.052537,-5.809594,1.390391,3.294848,0.979646,-3.205165,-0.7266872,1.727531,2.175165,-8.314339,4.861704,-2.621004,4.449958,-3.008691,-2.943805,0.5772983,-1.534331,-4.990697,-2.153825,3.850819,2.935862,-4.541844,3.394618,0.06964117,-4.006733,7.145085,7.539481,0.4477755,-1.463735,4.365078,-4.341355,1.2924,-6.983003,10.28034,-3.582515,8.097123,4.325046,-4.83433,1.386812,5.956916,-2.940058,-0.9044452,3.828368,-6.091466,-12.53635,0.1002513,-11.12369,1.770566,1.927277,6.084378,-3.87476,-6.604767,2.767348,1.671,7.429387,-3.038491,0.3061256,-13.21581,6.907411,0.07064731,-7.022672,-11.17639,3.518838,-1.124333,0.3426352,1.273721,6.656849,2.502716,-2.874705,-2.693726,-0.632285,-1.884326,-2.348584,6.295389,-3.14594,15.2564,2.753428,-3.019496,0.4566666,6.450927,-6.714705,0.7172728,-7.450119,3.222445,7.603854,13.34079,7.853542,0.9826232,4.664106,6.230454,2.512818,7.448431,-10.72608,-6.250495,1.846705,-9.658127,1.886288,5.001105,-0.5519983,0.364453,-2.853442,3.429813,2.310482,0.1750124,-9.596706,1.488854,-1.673843,-5.330866,2.954516,0.4576493,4.515431,5.732821,-1.98966,-10.09458,-4.874415,-8.602434,1.650967,-14.49423,2.862648,5.675104,-11.08476,-11.24398,5.051474,3.407899,1.039237,-3.753242,-1.029648,4.774361,-2.413395,-3.543359,-0.8062877,2.112966,-0.7962734,0.6548396,2.964273,1.073014,1.52029,6.939222,-0.4631757,1.733461,-2.799248,2.963995,8.747635,2.676671,4.963387,-2.974614,-1.568708,4.784298,-1.882589,-6.025915,2.46226,1.07159,-0.7507851,1.656538,3.082019,0.8112586,2.549364,5.407832,1.012418,3.652219,-4.545508,2.493365,6.300718,3.789303,3.880068,-6.648709,-1.08833,4.490357,-2.950333,-7.323672,1.648273,0.9801586,0.2450708,-1.829798,1.184599,-0.206142,2.019896,6.164122,0.4783766,1.948527,-1.748484,1.551224,2.673093,3.830703,8.496581,7.040769,-0.7763825,2.703337,-2.356762,3.130671,2.923553,6.186003,0.5640078,3.41511,3.566665,5.10479,-0.9140429,-6.538301,2.415184,0.6596807,-1.110725,-6.400133,3.049179,-0.3443876,3.53343,-0.5544919,3.679774,-1.775864,2.856763,0.5392026,2.136848,-0.3658718,-0.1335786,-1.636822,0.9228464,3.52082,-1.710992,2.462267,0.4159062,5.719523,0.3352438,0.6929067,6.987849,1.909888,5.834728,7.15041,-0.119233,2.370496,-1.839814,-1.20445,2.728127,5.121004,0.6452538,-0.1097158,1.304721,2.419564,-1.195776,-7.229017,2.010485,3.56195,-4.837034,-2.287976,-5.804542,-0.9468334,-3.019642,2.131368,3.117082,-3.114995,3.502005,5.690194,-0.51407,0.8952756,-1.527912,-0.984978,-2.279797,-2.384305,-3.411818,-6.371617,-0.6268346,-2.035736,4.042441,-0.6979188,-0.9076539,2.486049,3.591965,17.12043,5.002175,-1.155415,-0.7385333,1.221867,1.369059,-7.828574,-2.439971,-3.681723,2.301815,6.768004,-2.045576,6.966163,-2.974481,-3.316976,-7.066055,-6.102394,1.389532,-2.243204,-1.765285,4.207493,12.39846,-1.609415,-2.580221,5.436862,-3.66377,5.03092,4.560667,5.557572,0.2342469,1.935039,-1.996865,-0.2910457,-2.235796,11.5615,4.908068,-2.286575,1.263441,-1.535258,-4.548136,-0.3177189,12.67933,-1.042069,-0.4546465,4.583496,-0.8585522,4.723077,3.473904,4.59187,-1.980175,-1.869256,-0.4215746,-4.04407,-4.045667,9.083773,4.998047,0.5970917,1.614271,-1.215386,-0.6186486,1.936908,10.41226,-0.697976,-2.507933,3.563133,-3.417384,4.570882,3.904068,1.535226,-0.890323,-2.729102,-2.72735,-1.421203,-3.024991,10.36821,4.267941,-0.4467721,-0.6520665,-2.875379,-5.48132,0.8979861,3.178317,2.686414,7.453858,4.794239,13.20873,3.056349,1.884556,9.552575,0.9208826,-3.080425,2.009194,-1.112665,-0.8926044,1.327984,-1.285287,-0.9050725,-5.013178,3.125921,0.06314864,-16.69413,1.460462,2.19581,3.766416,1.634728,16.4357,1.985605,-3.915605,9.158445,1.974702,-15.82081,3.825811,10.31471,-5.733471,16.90794,-1.662602,-4.743839,6.972497,-5.976852,-9.961947,-4.201084,-0.3468924,2.019835,3.156503,4.734867,5.979356,8.748482,-0.2419196,-5.394156,1.002733,-10.81588,-2.616953,-0.8688276,-5.312666,2.826255,0.3262073,8.191554,13.90049,2.234452,-18.22149,1.149675,1.171996,4.870633,-4.873229,-4.690383,-19.54287,2.193777,-1.530866,13.70907,-2.442168,-3.580105,4.583225,-10.13768,0.7370937,-0.4455633,1.640802,0.1684438,0.4356173,3.342422,-5.156037,1.070396,7.857249,-4.626026,-8.220989,5.391688,6.847295,-11.10876,-0.4807634,-6.17411,-5.388835,-9.946457,-3.125173,5.638909,8.137604,-5.548792,-0.2439153,8.732904,9.098474,2.882744,5.68597,-12.94408,2.041745,-7.075703,-11.38223,-1.705983,-4.437995,-1.51437,4.374817,0.2338081,-0.2833788,-10.09292,3.759351,-0.4848115,2.652651,2.549313,11.32505,-0.4922492],[9.008163,-9.009182,-7.335287,7.334643,7.755576,-7.756482,-5.740119,5.739469,5.827113,-5.827939,5.382769,-5.383715,3.762745,-3.763292,-6.390115,6.389634,5.9644,-5.965122,-4.566563,4.566001,-9.24381,9.242563,-3.913422,3.912958,4.881868,-4.882771,5.253525,-5.254045,-5.470131,5.46922,-11.57217,11.57095,5.775363,-5.776481,4.611599,-4.612206,5.306073,-5.30692,7.939777,-7.940983]],"layerNodeCounts":[25,20,2],"learningRate":0.2}