{"momentum":0.1,"batchSize":1,"outputActivation":"softmax","hiddenActivation":"sigmoid","weights":[[],[0.6631079,-1.630881,-0.7263786,-1.466311,0.3455929,-1.518704,-1.099534,0.7780229,-0.6946566,-0.6658074,1.948076,-0.5790967,1.189217,0.3640553,3.562466,0.06972802,-0.9472111,0.478477,0.6901987,2.460236,0.6572664,-1.63523,0.0967501,0.6627834,0.1235807,-1.829213,0.2166671,-0.7543852,-1.677862,-1.070472,2.785393,-0.9901855,0.3756089,1.217006,5.365116,-0.5202773,0.7910468,-1.175813,0.8346182,1.564146,-0.228389,-1.303379,-1.551105,0.3478846,1.851995,-2.787649,0.2201788,0.9527046,-1.390444,-1.787517,2.51915,0.4676873,0.7102303,0.3453903,3.911121,-1.545116,0.5828744,-0.8207807,0.5538612,3.02859,1.909852,3.165868,-0.4543324,-0.1971827,0.9801898,1.306668,1.707631,2.398703,-0.4749486,-1.190938,2.653321,0.2142069,-0.1589409,-3.065399,-2.297425,0.6976906,1.780008,2.183643,-1.288694,-2.336258,0.2978833,3.158082,1.861148,0.005060675,4.396431,0.22489,0.03879296,0.8990321,-0.1210998,3.545227,2.542421,-2.17428,1.804046,-2.716442,5.075848,1.77953,1.652732,0.771394,0.5252077,0.2893963,2.594062,1.272423,1.475314,1.153232,0.788784,0.4283136,0.3646071,1.875773,1.565252,-0.3048414,3.249417,0.4843119,-1.335306,-2.613743,-2.958416,0.8316565,1.271272,1.439441,-1.965754,-2.884164,1.278685,4.006912,-0.6066769,1.178588,-0.43805,1.210729,0.1517376,0.7162625,-2.506889,-2.37387,-0.7696882,0.2741033,-0.9936305,5.563259,-5.301863,-0.7310596,1.21148,-0.9643751,-0.4090807,1.996698,1.936699,1.262733,1.632113,-1.863853,-3.286633,-0.8155608,0.2723664,1.03648,-0.8472183,0.3014504,2.479062,-0.4863285,-0.964941,-3.521673,2.106312,2.221314,-0.5834354,4.652411,-2.435681,1.603943,1.011002,1.111862,-1.581839,-0.6483258,1.264801,0.6299762,-1.04864,2.0294,1.870451,-0.7641078,-1.552556,1.895075,-1.635138,3.002654,0.01693616,2.116703,-1.982205,1.500452,-0.6841651,-0.05213574,0.5248221,0.9282448,-0.9900219,-1.646572,0.4065439,1.485721,-0.6128122,2.075486,1.481377,0.7523886,-0.3842014,1.245336,0.1940915,1.531443,-1.332551,1.868305,0.06746577,0.3084675,-2.202705,-0.9421594,0.05636371,1.490411,-1.452956,-0.6141324,1.957992,1.626455,-0.8057559,0.1978867,1.685648,-0.8250386,-0.8687844,1.812473,-0.5232989,2.990655,-1.734725,-0.07589579,-1.109009,-0.8624374,-0.4242659,-0.3394555,2.126228,0.5903388,0.1901085,-2.591993,0.2098121,-0.02593197,0.350468,0.4765826,2.35873,0.8278144,0.1588796,-0.4501447,-1.859185,0.7097506,0.4281201,-0.04936342,0.7233251,1.535155,-1.213746,1.525639,-2.983908,1.029929,0.3814349,0.5471615,-1.617859,1.515355,-0.2468472,0.5380145,-0.4490409,0.3804126,0.2634089,-0.346738,-0.9994467,-2.094653,-0.786518,-0.8978319,-1.877827,-2.425005,0.6621163,1.071721,3.299026,0.9177758,2.198812,-1.60408,0.5969006,-0.2550654,-0.5567812,0.2388153,1.710639,-0.9670583,0.6404855,-0.9370565,-1.581696,3.137717,0.6128339,-1.186464,-0.3351718,1.289001,-1.220079,0.2471666,-1.982452,0.2808901,0.2415935,1.266403,-0.8712503,-1.418488,1.175615,-0.9485104,-0.4911855,-0.2173039,-0.1513437,-1.166042,-0.4877343,-1.331214,-0.0574738,-0.8631666,1.049444,-0.9509882,1.53918,0.1409233,-0.4147211,2.430334,-0.008368286,0.3991048,-3.522539,-1.321532,1.528069,-0.1923218,-3.079002,0.2169885,1.357532,-0.7707871,0.4972006,-1.352905,-1.45658,-0.70049,0.7603304,-1.965129,0.5503909,-0.1089224,0.7191538,-1.462841,-1.709029,2.285259,-1.01487,-0.2738415,-0.5780342,0.0228103,0.6290076,-1.131799,3.13058,0.7469107,2.723502,-0.1772525,0.3473612,-2.034228,2.305969,0.3607332,2.46032,-1.461608,1.035584,-1.432906,-0.609542,2.164355,-0.4648605,-0.2527356,0.3036144,-0.7286898,1.177411,-1.897021,3.0223,2.235899,3.646546,-0.6127748,0.978388,-1.931869,2.73882,1.383421,1.577241,-2.562669,0.892054,-2.183343,-0.3005673,1.506393,-1.304413,-0.1220668,1.172971,-0.567206,1.726026,-2.621579,1.881842,0.3349797,3.740826,-1.094167,0.9064611,-1.667657,2.201432,2.464571,0.7147112,-3.483619,-0.09529331,0.8276352,-0.1793747,0.0280445,-2.311384,-0.09035146,0.1772071,1.905165,0.7239029,0.7826849,-0.6763141,2.678043,1.694803,2.658952,-0.6862139,-1.006044,2.284645,-0.4251826,1.136612,0.08056158,1.821915,-0.486363,-1.184091,-0.3824695,0.05954651,1.147258,-0.6435376,-3.526951,-3.813836,1.203475,-0.3288929,-1.411057,0.5182354,-2.099584,2.882758,-0.4932418,3.150755,0.29447,-0.311181,-2.190939,0.9335067,2.288316,0.8510961,-0.5613353,-0.9097549,-0.1897134,1.47671,2.976626,2.171882,0.6702002,-1.525276,2.327993,-1.111521,3.618085,0.09062413,-1.218096,0.4276435,0.9078977,2.928604,-1.536994,0.4360266,-0.88849,0.4094759,0.04012075,5.307973,-1.286707,-1.41177,1.522451,5.566831,5.983222,-2.012073,0.2771628,-3.434974,-0.018747,3.277104,1.578086,-0.7021785,-1.378584,-2.25968,-0.7451214,-1.469852,-1.025472,0.4810826,-0.5362908,0.336002,-0.4342107,0.6817561,-2.056626,0.8494066,-1.938836,1.964739,2.184677,0.7696756,3.090537,-1.816736,0.8337592,1.240069,-1.187639,2.546073,-1.905676,-3.342045,0.7984955,-1.538044,-0.528132,3.511841,0.8800305,-1.481459,1.613876,-5.341719,0.1765543,3.425286,-3.45708,0.6389979,0.4692632,2.200493,-0.7249464,-2.709936,2.192024,-2.036388,0.2395521,-3.353403,-0.181858,-1.411773,-1.047983,0.1473325,1.192684,-1.975049,0.114215,0.8840654,-1.404938,-1.300175,-3.294779,0.3323909,-0.6252265,-4.748967,-1.43351,-2.269275,-0.9331797,-0.3108678,1.706547,-4.11305,0.3998637,-2.464956,-0.3151181,-0.8200938,0.9945491,-1.75921,-1.624819,2.208305,-1.136596,-1.85354,-3.449065,2.081037,-2.063257,-3.275279,-1.501747,-1.323901,-2.187436,0.4329937,2.820248,-2.492927,1.168194,-1.038756,-1.253644,-0.976084,0.9897952,-0.005558645,-0.5033653,0.8191372,0.3264702,0.1405257,-1.079336,1.207708,-0.275997,-2.745033,-1.383853,-1.163763,-0.8192073,-1.699742,2.495439,-0.6135508,-1.302141,-0.5203022,0.9826376,-3.696508,2.608779,3.136945,-0.9595987,0.9772877,-1.560429,2.315724,-0.3768249,0.8086249,-3.306964,0.7738859,0.1040032,0.9179591,-1.22426,1.341339,-0.01886521,-2.228399,-2.021632,-0.4058442,2.633774,4.177814,0.7344916,1.710231,-0.527249,0.4302974,0.1350384,-1.639272,-0.3939371,2.845255,-0.442123,-1.139081,-0.5979534,1.730635,-0.1740865,-2.440312,1.488624,-0.624758,-1.06532,0.1232012,1.820272,-3.166782,4.115673,2.98452,-0.5297148,2.050532,-0.715688,0.3122834,1.536245,0.4636611,-2.14002,1.771721,-0.3118502,2.596931,1.140854,1.562891,0.8125962,-5.911726,2.111806,-1.257849,0.6422992,0.09606289,-2.569006,-0.7539175,-0.2691857,-3.240664,-0.001126573,0.6106288,0.2968147,-0.2959245,-4.933429,-4.510085,-2.449643,-0.1426901,2.621955,0.8989807,0.963819,1.751911,-0.2425776,-0.6882846,0.9921578,6.099513,2.457197,0.2168787,-2.599861,1.264188,3.720845,-2.455226,-1.420988,-2.736724,-1.555597,0.002107727,1.531459,-3.834398,-1.180471,0.4068803,4.150022,0.7943399,-0.4313914,-0.9941759,3.788533,-1.403048,1.412576,-0.7481252,1.822877,1.422495,3.115917,-0.2959685,0.4934217,0.27343,0.8444308,-1.750187,-0.05024222,2.785461,-0.01803865,-0.4195793,0.2945093,1.039797,-1.00804,0.2282922,3.491116,-0.9612499,0.5813595,-1.626632,1.289392,1.288602,3.437662,-0.1928095,-0.06898863,0.9603575,0.2665947,-2.026309,0.3230828,2.710933,0.4704917,1.699094,-0.8978524,2.109127,0.8030654,-0.917138,3.458374,-1.854879,1.028382,-0.5905502,1.15683,0.8059248,3.790631,1.475322,1.757295,1.3666,-0.8526337,-1.545509,0.7805461,0.5278127,-0.2287905,-0.03732843,-0.904537,-2.067135,-0.7738492,0.3235689,1.181464,1.654335,-0.561955,-0.1115971,1.774538,0.5904896,-2.12689,3.651829,-0.2080486,1.437136,-0.2034788,0.1116574,-1.662568,1.654883,1.166556,1.45397,0.8586451,0.751307,0.5402741,2.048977,0.9438435,-0.8721272,1.620158,0.3619938,2.365003,1.916967,-0.5460595,-1.250019,0.596812,-0.7843932,4.204775,-1.019922,-1.894026,-2.504929,-0.4762723,-1.303606,-1.769569,-0.8244909,-0.8149294,-0.1652405,-0.3901935,2.830597,-1.025153,0.3111028,1.511749,1.052428,-0.5622595,1.541286,-0.6316943,1.876113,0.3760961,0.5530826,-0.857353,1.320395,2.181421,1.683084,-1.793266,3.530939,-1.869856,2.590862,-3.462503,-3.180892,1.358696,-0.1447216,-1.338515,4.159737,-1.344664,-3.441527,-0.9712753,0.959804,0.7553219,2.055575,3.826647,-0.9959705,-4.111318,-0.9232422,-4.938645,0.9161721,-1.579074,-0.4955501,1.159031,-2.641373,2.750577,-0.3532,0.5070767,4.503969,1.204519,-1.509241,-1.264925,0.4296371,4.515229,-1.240852,1.343472,4.865891,-1.386434,0.1836396,-0.9778157,-0.6711185,-1.028155,-2.33744,0.9625449,2.378339,-1.486632,1.542256,1.142185,-0.6559629,-1.471455,3.289493,2.135658,-1.293124,-1.122029,4.361851,1.963301,-1.196713,-0.9145443,-3.415677,-2.863339,-0.334752,-1.204001,-1.418376,-0.4064509,2.914381,-1.456288,0.4354466,0.8735855,-2.001273,-1.702877,2.010117,1.189751,-0.8260326,0.8220474,2.61278,2.403562,-2.561756,0.7260277,-3.481011,-4.409816,-1.499431,-1.338453,-0.9405838,-1.146439,3.644479,-1.020365,1.450128,-0.01455842,0.0902489,-2.530813,1.838868,1.621522,-0.9712972,-0.1692462,3.988651,2.14192,-1.494113,0.1521598,-2.592971,-3.742051,0.1819223,0.8079834,-0.4876855,-1.458459,-2.618083,0.277,1.313942,-0.1397616,-4.312688,-1.394907,-1.65279,0.01657227,2.566523,-3.048908,0.2312066,3.714857,-1.065303,-2.389911,-2.002508,-0.7640751,-0.2681763,3.454923,-1.14746,2.890807,0.1987176,1.590801,1.20383,-0.1235794,3.628196,-1.278692,2.954401,-2.963844,2.241059,0.8411036,4.333538,-0.4278704,-2.942534,0.3350216,-0.6819263,-1.928952,1.391949,1.518518,-0.7924253,-0.6801172,-2.675155,0.3108799,0.1543874,1.679001,-2.044064,-2.22752,-2.66668,0.2478569,2.800919,-3.281819,0.2750216,3.522189,-0.7188795,-1.829509,-2.516126,-1.221209,-1.76554,-2.564372,3.324343,-0.3000596,2.934013,3.192007,-1.415453,1.642477,-2.38326,-3.632907,4.210663,1.688629,2.21553,-0.368939,-5.211476,-2.559358,-2.927629,1.50474,-2.57606,1.82253,0.01910555,3.714913,-1.407331,1.408105,5.180466,-2.102657,-0.8080708,-2.941075,-1.227445,5.512003,-3.047951,1.444565,1.116795,2.897449,0.7313914,0.5981905,-2.774689,-1.875368,-0.3447037,-0.1495256,-0.2945417,1.532493,-0.3519074,0.6054469,1.611879,-1.002727,0.4054418,-0.278703,-0.8749546,0.4869808,1.581158,-1.040636,-1.462557,-0.8730156,-1.315135,0.3481383,2.956607,0.7583894,0.8785097,1.806075],[6.251146,-6.251685,4.51526,-4.515722,-3.761493,3.761105,5.335223,-5.336117,5.398367,-5.399092,-6.042258,6.041706,4.0371,-4.037427,3.727051,-3.727485,-3.502661,3.502302,-7.556788,7.555978,6.270164,-6.270844,-4.582641,4.582199,-3.347718,3.347225,5.257772,-5.258199,-8.490716,8.489583,5.977661,-5.978583,3.46697,-3.467385,-3.852063,3.851621,5.445425,-5.446342,4.823929,-4.824614]],"layerNodeCounts":[50,20,2],"learningRate":0.2}