{"momentum":0.1,"batchSize":1,"outputActivation":"softmax","hiddenActivation":"sigmoid","weights":[[],[-5.413684,-33.97511,7.36784,9.64769,-27.07662,-19.50721,-8.070726,0.1654861,-1.739518,30.5915,7.307557,-19.47328,20.72049,-0.2386211,-5.197706,-15.15839,-11.29847,-3.694681,13.16172,-11.09308,1.242639,-21.23902,-1.940799,-14.53088,-14.04293,6.025984,-9.098274,-15.38015,7.625707,-22.34174,-29.83453,19.58592,-14.03304,4.131879,3.358451,1.162521,2.626691,9.581337,-22.686,10.26086,-10.12974,-9.221968,8.18084,9.357764,-4.801095,2.889012,-0.914148,-22.1733,11.80003,33.82198,12.49838,-5.806201,19.68543,-0.7525173,-5.823275,-3.13981,-21.3077,-22.2044,-10.58558,-14.80319,7.008224,23.81211,-18.99469,-30.90439,34.51601,-24.81173,-11.5451,-27.23739,1.636602,27.0225,15.40656,1.820178,26.90804,2.074035,3.146269,27.58549,-23.74027,13.1363,4.885078,7.899664,2.109019,-18.91405,-5.541842,-3.606128,33.3309,8.100626,-6.074808,-12.39505,23.57851,-10.83392,5.91583,-5.512722,32.19146,25.75191,15.78188,-14.02267,-5.385547,-19.82514,-26.19593,-18.5451,7.145097,-1.396094,-21.35121,12.12974,-18.03005,21.42974,-6.955992,-28.18078,-11.11082,6.356859,12.02633,27.77995,27.25735,16.86276,13.9806,-2.277564,-9.707736,2.592382,15.6716,11.5815,-23.67697,7.377996,-40.04274,-28.57214,-17.87421,-20.15825,-1.752364,-40.39374,-26.09687,-1.516684,-3.148983,-0.3358326,-2.953366,-0.327577,-13.90763,2.194843,-40.91821,-8.365193,17.88227,5.518315,-0.7127687,-3.984265,-0.1206893,-2.893875,-3.488693,-3.580608,-6.110121,1.52222,-4.379172,0.5973609,-3.884192,-3.973533,2.533859,-5.926687,2.467352,-1.78467,-1.742056,-1.535044,-2.639845,1.544805,2.606659,2.094482,8.505014,2.017308,-2.010498,1.177195,14.50815,-1.572933,1.896234,-3.249935,-1.401127,-1.328074,7.760488,1.473271,-8.079638,1.07503,0.1743614,3.999671,0.7464962,-7.877531,-1.219483,8.812201,-1.483392,-7.412029,3.189208,6.465732,-25.15705,-4.421368,-3.91176,1.374735,0.4937129,10.29975,-8.414999,8.422738,4.24573,0.03389092,-8.925215,-7.542696,-2.21921,5.464947,1.52003,-5.41583,0.1266937,1.420756,-9.64209,4.479396,0.200865,-3.070387,6.789337,-2.669764,1.751656,-15.63369,11.53019,-4.392434,2.509531,5.159105,7.399987,10.42975,10.596,-8.51427,15.08937,1.587339,-10.13969,-0.4140127,4.47889,-7.433811,9.282969,-1.945572,4.62971,6.771008,0.7225376,2.421507,-0.4209994,-2.647546,-5.290731,-14.77198,11.80141,-2.025186,2.55653,4.807497,11.9684,-12.10502,8.392399,-2.702735,-9.544484,6.024026,-4.239834,-11.59461,-1.077964,0.0996218,0.4873185,-9.439766,-0.6439173,3.009518,-3.085578,-7.464795,0.8786592,0.4960605,-3.703996,3.406777],[-5.81265,5.812152,7.071029,-7.072772,4.651329,-4.652884,-4.909732,4.90836,-9.253515,9.25193,9.202797,-9.205215,2.807994,-2.808799,8.05275,-8.054491,4.945079,-4.946524,8.163832,-8.165449,4.26773,-4.268547,-7.629131,7.627672,-9.973941,9.971222,3.714314,-3.715999,4.699071,-4.701157,4.957165,-4.958045,-10.67549,10.67334,6.284862,-6.28568,-10.96741,10.9652,3.217966,-3.21831]],"layerNodeCounts":[13,20,2],"learningRate":0.2}