{"momentum":0.1,"batchSize":1,"outputActivation":"softmax","hiddenActivation":"sigmoid","weights":[[],[0.3572551,-0.1238603,-2.761807,-0.6082719,-1.982631,-0.2902506,-3.479766,2.292816,-0.8723063,4.444648,-0.7122169,1.46727,-1.839463,-3.058403,1.593279,0.933235,0.5153328,2.412045,1.289916,2.984385,0.4705855,-0.885148,-3.057932,-0.4166349,-2.746822,-0.3965873,-3.13168,3.714844,-1.532566,3.321344,-0.09186247,1.498833,-3.080074,-2.050715,0.293641,2.596303,0.2524851,2.126989,2.451357,3.598999,-1.314763,-0.8224442,-2.459265,-0.9888107,-1.688602,0.04094418,-3.36645,3.438677,0.1628475,3.511884,-2.159421,-0.4096404,-2.90167,-3.185257,2.063098,1.546423,-1.152223,3.651855,0.2635392,2.61196,-0.3497637,0.0162092,-0.001078182,3.714202,3.020942,3.307729,5.880851,3.274488,-0.7134835,2.508183,2.396958,0.5048729,0.6153784,1.782562,-2.02028,0.6738032,4.335005,2.202231,3.066854,2.021257,7.875627,6.994429,-5.993806,-1.693098,1.074758,-4.452683,4.686419,-5.969637,5.283944,4.935988,3.921117,2.469427,-2.802979,0.8923761,0.2437483,-4.433409,-0.7357419,7.231052,-3.64409,-0.5075796,-0.8546009,-1.405529,1.767175,1.379278,2.345157,4.025435,3.998176,5.179123,-1.906462,2.342746,3.316798,1.796825,2.645355,2.800745,-1.921052,0.8083971,5.550209,0.6072663,1.626166,3.229195,3.149278,2.094553,-2.091568,1.397133,5.584821,0.2511329,0.321002,-1.084877,2.154444,2.146256,0.4111697,0.6185234,8.022271,-2.798862,2.883294,-2.330909,2.020415,-3.037789,-0.6130219,-3.81198,6.914979,-0.07084161,2.895129,-0.09179513,-1.714624,1.680115,5.30504,-2.066457,-0.3379565,6.148736,2.784012,-0.6030004,0.3259046,3.035908,-0.852149,1.7051,0.5197123,-2.491674,-7.45639,1.9148,0.4882451,-0.3804215,1.582908,2.367925,1.132737,-0.514318,-0.7824681,1.08648,-2.070318,0.07812217,0.0305015,-1.01411,0.9780063,1.21509,-1.568866,-0.1829486,-1.495951,-0.1983069,-2.485879,0.7292585,1.828227,0.2028514,-0.1415059,2.699661,2.167334,-0.4365988,0.08363727,2.686342,-3.440712,0.1563362,0.9321834,1.426531,0.4910217,0.3546147,-3.080021,-0.1084978,0.1403018,-1.784178,-1.104302,-0.2255152,1.130589,-0.3328954,0.5255764,1.010116,3.373195,-2.031321,-1.293475,0.8705472,-3.323169,-0.3317488,-0.7901572,0.3181522,2.219195,-0.3979219,-0.9763999,-0.2062448,-1.643337,-2.706046,-1.854349,-0.06656547,0.4433402,-2.063604,0.5738497,-0.4676982,-2.735344,2.960538,2.335856,5.222084,-3.348819,2.779797,2.142319,2.803361,1.021555,-0.3414358,-3.076734,2.848495,1.343235,3.713763,2.692188,-2.267791,-1.609716,-3.159175,-0.6541376,-0.2417429,3.022458,-2.331538,-1.813489,-1.120675,2.32133,4.781932,0.1047411,-0.5132569,-5.104237,1.51247,-0.7142438,-0.713349,0.4176513,-3.014367,-1.539952,0.8613796,1.161451,-3.093458,1.205418,0.6035497,-4.293396,4.405983,-0.1131909,4.123582,-0.5267478,3.461284,3.212145,1.136974,-1.3367,-1.008183,-4.861873,4.041527,1.894131,3.12741,1.218839,-1.318236,-1.748021,0.5123752,0.0637086,-1.155756,-1.043558,-0.516813,-0.3862393,-2.356233,4.046738,-1.237261,-0.7262609,0.3993806,-1.886987,-0.03608847,0.9596846,0.6059523,0.6737118,0.6927449,2.82515,0.05231339,7.488192,-7.252761,-0.2012479,-1.673682,-1.946851,6.130246,-2.427933,-2.522997,5.997906,-5.41012,-0.87528,-1.839221,7.138121,0.8070323,-0.3934967,5.888348,-4.739597,-0.7810591,-0.9762101,-2.879448,-2.495276,2.970939,1.213159,-1.965299,0.2785438,0.07890269,4.068748,2.72632,3.254664,1.411913,-7.111506,-3.365942,1.230706,3.263861,-2.745171,0.6499607,2.461722,1.420914,-2.316788,0.6924829,-2.712396,1.494931,2.395039,-2.380572,-1.56445,-0.5742729,4.815178,2.708148,1.896305,2.202121,-5.884545,-3.74854,2.230064,4.268457,-3.144878,3.164859,0.8288167,2.860669,-0.2237566,0.9823698,-0.1931925,2.044319,0.8887461,-2.248599,-1.752364,-0.7490752,2.305925,2.362343,2.540398,1.811023,-6.355492,-2.655427,1.871968,3.290699,-1.721644,1.016473,0.4275636,2.184077,-3.387754,0.4896469,-2.265145,-0.9543705,-0.1732799,1.272435,2.089643,-5.888061,2.284703,-0.7433271,3.688632,3.11898,3.225789,3.025764,-0.2882374,3.991245,-4.120972,5.006768,2.444018,0.9121214,4.977048,2.899865,1.437828,0.6815334,-8.114511,1.246996,3.142756,-3.462966,9.429319,0.8439894,-2.649494,-0.3490651,9.74717,2.730463,-1.999871,-10.96349,-0.1883372,-3.738979,-0.8130214,-3.296713,-3.927509,-2.032403,-1.515187,-0.2643253,2.121315,-1.007614,4.965454,-2.40074,2.33173,-0.6972092,1.786313,1.886987,2.284177,2.117568,-1.28819,7.197647,-1.970631,3.117282,2.182223,-0.2566215,0.9779588,2.646415,2.67963,-5.408772,-2.552482,0.5652751,-5.501336,7.036976,-5.401407,1.689238,-8.60009,-2.240416,3.386982,0.8232042,2.291129,-4.97846,-1.124153,0.9901083,0.2312256,3.961022,0.1224959,-0.9546595,8.967532,0.4468067,3.50976,0.4935654,-1.650933,2.787058,1.917616,-6.259161,-2.021355,0.145594,5.513304,1.323567,-1.678702,1.266227,0.1013013,6.041658,6.464562,-0.4515877,-0.1478337,5.256785,4.069233,2.776077,-0.2012303,0.5914103,1.98613,1.350182,5.2358,1.778831,-0.3415905,-2.224844,8.157598,2.177023,2.605115,4.080274,5.962772,-3.550305,1.319377,-0.754558,3.458347,3.4812,-1.957305,-1.014784,-0.3348916,0.6683212,0.1725616,0.9072404,2.588345,1.634609,0.003238896,-1.196103,1.958071,-1.308238,-0.3238884,-5.313725,1.219319,-0.1768161,0.4437796,0.4944388,-2.417056,4.803316,-1.466044,-2.037865,0.1668563,1.442302,-0.3866553,1.038788,1.187595,1.842674,-1.984957,-1.121975,2.319073,-2.754589,-0.06729066,-4.842126,1.334574,-1.875045,-0.6548768,-0.7574908,-2.973814,4.377182,-1.789271,-1.408113,-0.05127843,0.4242772,0.8202128,1.181251,1.32722,3.241611,0.1134784,-1.79426,2.6801,-3.522537,-0.1840623,-4.493683,1.999451,-0.7628228,-0.0156349,-0.2948838,-2.268965,4.005723,-1.679549,-3.268203,-3.87284,-2.944692,2.359372,-3.867929,0.2418403,-1.875228,-1.349417,-4.007834,0.1614954,2.195321,-2.724842,1.706628,-5.350213,-0.1503531,-1.244448,-0.7914283,3.855963,4.800087,-2.763301,-4.270493,-0.8168629,0.9996682,-3.909985,8.625752,-0.3293479,3.543069,-1.713687,-9.088463,-0.8708266,3.540399,5.384268,-4.710231,-2.544244,0.3437169,0.3334162,-1.692835,6.847354,-4.031701,-1.218243,-3.139699,-3.379934,-3.229738,2.846616,-4.626338,-1.937712,-0.8544884,-0.1187289,-4.663923,-1.98446,1.96439,-2.614033,0.6671393,-5.141048,1.2585,-1.418069,-0.617783,4.894417,1.8369,-3.756403,-0.232671,-1.333605,2.26929,1.545311,1.358016,-0.4274892,0.3307271,1.670082,-0.2864767,1.385701,-2.002628,2.284471,-6.726849,-2.114957,-3.026567,1.278159,-3.481099,3.412378,1.693066,0.4517481,-3.975132,0.839613,1.124622,-4.079592,3.732699,1.892183,1.728617,-0.192972,-9.159627,-0.389019,4.199019,4.079939,-1.730394,-0.6583984,2.178982,3.518871,1.78724,1.302632,1.502545,0.5093004,4.397359,3.92301,-0.6440042,0.8540902,-2.187335,-1.199087,0.3711275,0.7497796,0.4438864,0.19156,-1.302688,-1.19079,3.176646,1.739657,-2.671249,-1.716847,0.76504,1.195642,-4.319005,0.7915357,4.525321,3.3187,-0.08620638,1.681753,-0.7822849,0.3706848,0.7544051,0.7615615,1.837126,-0.3716046,-0.6921063,-3.206653,3.655609,3.598552,-0.1921991,0.4612616,2.56231,0.06806797,-3.394355,1.275189,2.778365,4.262535,0.4798265,1.234335,-2.012193,-0.1904801,0.6247641,1.172121,0.4470423,0.874129,-1.839281,-1.451939,2.861129,2.520194,-3.178945,-0.0587928,2.072191,-0.6963995,-4.371861,-3.231604,0.409862,-0.9731636,-0.752735,-1.453216,-1.349591,2.66349,0.8258556,-0.3238688,-1.295842,0.4816082,3.434474,-3.738654,-3.843632,0.03385554,6.489308,1.350083,1.07558,1.10987,4.391031,-1.080169,1.95831,-0.6697479,-0.7810783,3.129508,2.270853,-0.5174249,-0.7782195,3.580877,-0.964783,-0.3666111,1.546172,4.184805,3.305521,0.09676552,-0.188453,0.8985845,3.674121,-5.92272,-1.763461,-2.709574,0.1679099,-1.470152,0.3018961,-1.76496,-3.411365,1.254999,-0.5544867,-2.519029,-1.073024,0.02056572,2.324087,-4.641302,-3.196439,-1.97332,6.719925,1.123113,-0.7853175,3.174109,4.149326,0.1617717,-2.634778,4.998068,-0.4233025,1.242659,-5.413394,-1.66264,0.3321976,-1.396549,4.882838,7.084672,4.709257,3.445543,2.273674,-3.601673,-4.140352,-4.364971,-2.08602,-4.229416,0.9486642,-3.376323,2.786838,5.538137,1.790698,-0.4736844,-2.237682,2.161031,-0.8612654,-0.6515178,2.989398,-5.369952,0.48107,-3.049234,-3.158801,-4.550115,4.840948,-3.545929,-1.470444,-2.11072,-3.210766,-0.3175307,0.138105,-5.617578,-1.747279,-1.840181,1.147973,-0.3206177,1.672998,-1.150963,-1.039946,-0.9914213,-1.561987,1.665167,6.976691,3.101374,0.05506244,-2.973764,-4.178556,0.5656718,2.147924,1.433408,-0.4528645,-6.066731,-2.319139,-1.649031,2.417409,-2.011756,1.48682,-1.080705,-0.468821,-1.643393,-0.7574549,0.5250129,6.665262,2.823131,-1.084635,-1.607172,-3.93875,-0.07772966,1.687736,1.200414,1.881046,-6.120862,-1.907169,-1.537994,1.941417,-0.1436057,4.006306,1.334013,-1.809558,-0.4506732,-1.783879,0.5068887,5.398543,3.373543,0.3121186,-2.151556,-1.616114,-0.7271619,2.318621,0.4618493,-4.731184,0.6897444,0.5237682,3.665329,1.362238,0.3204607,-1.734601,-4.146761,1.273789,-1.184301,6.410282,-1.045125,-0.2804405,-5.730512,-3.032576,2.282059,-3.852857,1.168038,-0.5192788,5.435027,2.283618,0.05538222,-1.007357,-0.80896,0.1395565,-0.9933307,6.071161,-1.084587,-3.575445,-0.1175278,0.05519101,-2.799366,3.474148,4.230689,-0.7816309,0.2200318,4.037767,2.386565,2.850049,0.5395203,-5.45752,0.3476043,-0.7537541,2.950976,-0.5476378,1.623281,-2.309017,-3.377769,1.188577,-1.258247,4.4068,1.14486,0.4419516,-7.449569,-3.307233,0.5666935,-2.907647,1.216325,-0.4392481,-3.489391,10.62292,-2.547921,-4.392894,-5.08175,-3.809851,0.5353995,5.341823,-3.24144,-2.53641,0.6110266,-0.7777278,-4.827897,-5.191585,-3.819322,-1.358802,-0.997246,3.783589,-5.501085,-0.4207083,4.023827,-4.167067,-0.6249055,0.6305532,2.873192,-0.7794517,5.400729,1.589545,-3.681851,-0.4248894,-0.7231007,-6.235378,-4.341818,-1.954034,-2.666814,1.686297,4.00991,-1.951539,0.9886552,4.643554,0.480544,0.2729522,-1.469748,-0.8878758,0.02070227,-0.2614565,0.6715827,2.411721,-0.2096302,1.036971,1.635801,-0.6651854,1.145466,-0.265674,-0.1586861,0.3168161,1.175292,-5.67502,0.7896383,-0.6514645],[7.49781,-7.499004,7.93469,-7.935926,-5.510346,5.509217,5.302096,-5.303139,6.100471,-6.10155,-5.654417,5.653481,-9.831925,9.830964,6.008333,-6.009604,9.730832,-9.732707,6.49617,-6.496723,-5.118496,5.11723,4.319917,-4.32077,6.251416,-6.252491,-10.32475,10.32333,5.100955,-5.102109,5.847488,-5.848062,3.885372,-3.885985,-5.587342,5.586555,6.282209,-6.282827,-2.360253,2.359601]],"layerNodeCounts":[50,20,2],"learningRate":0.2}