{"momentum":0.1,"batchSize":1,"outputActivation":"softmax","hiddenActivation":"sigmoid","weights":[[],[-9.23934,6.829669,3.154378,-9.892216,-16.58854,0.8871132,4.341977,9.454473,-1.679601,6.907256,6.37823,-6.165893,2.780026,26.79186,-8.337482,1.552867,-7.232445,-0.6346821,12.96663,-8.885592,-7.736622,21.48605,8.057225,-10.94725,-13.5493,2.301419,7.337621,-16.57095,21.14407,8.098968,-5.886185,-15.18693,11.17285,28.78913,-5.564246,6.508698,-17.09702,-1.365031,-2.375387,-13.58522,14.2564,25.9805,-0.8997865,6.550294,2.619575,5.944372,-7.741833,-22.5689,30.40069,29.50611,-17.90552,10.3064,8.453586,13.55377,-48.4669,1.165575,-1.982155,-2.029068,2.864643,-4.661883,3.174635,19.32643,-1.036845,10.19697,-2.610404,3.616553,-5.827786,14.77109,14.48246,33.09305,0.3118112,-0.9061354,9.033429,20.99036,-37.69378,-6.061423,-1.777949,14.07201,-2.707202,5.470912,-18.71622,28.32693,46.06141,15.64064,4.910127,6.507682,4.157984,-13.15096,-18.25114,20.90787,14.82501,-20.9468,-12.08514,-43.98584,-17.30389,5.277316,3.994493,-9.228941,-32.17942,-12.03822,-9.497114,-13.12461,-27.87549,34.71863,-8.765759,12.26687,-0.5060256,0.7224005,27.00962,1.735626,15.01338,-5.762677,-8.827742,-12.10307,12.55716,-5.156116,-16.48355,-4.568276,18.63611,-4.612927,6.918855,-23.59985,-23.38702,-10.717,5.395813,-27.67184,-24.85651,14.07704,-27.58436,38.54509,14.39839,20.08854,-13.60768,3.291561,6.95037,-21.5582,2.949704,-1.851718,-2.956941,-4.981568,6.773062,0.03622673,4.581223,-7.276113,-4.804999,3.127238,3.868486,4.449803,5.28175,-6.577074,12.11147,-5.201336,11.54271,-2.823763,-1.057477,7.928169,-2.421202,6.194453,1.078399,10.30107,11.16228,-2.037716,-13.77422,-6.448831,-6.414466,9.641033,14.51313,-4.877681,6.013939,1.321374,-1.089587,-4.965278,-7.331194,0.9264023,-3.226773,3.731811,-9.179008,-5.243779,2.084222,5.514997,-14.33623,-1.273066,-4.071944,-15.81037,4.025102,2.237019,-4.978395,-9.832629,-2.53687,0.9817652,15.63911,0.5302176,-2.582655,-3.30565,-1.279179,12.50617,-14.0022,-11.37893,1.863967,4.035391,-5.769957,-3.2698,-0.2622637,0.2685511,19.69416,13.5442,0.7109889,-22.93128,2.895253,-2.074861,-1.672175,13.16981,-16.44904,2.302202,-1.917812,-3.113024,-3.37654,7.212747,-0.5955769,-4.073714,-9.782013,0.7782791,-3.421898,12.08623,8.5427,-7.24898,-2.728827,-0.5821111,2.956057,-0.7262334,-14.47179,13.85288,-13.71768,0.3861851,-0.3759537,-1.348821,-15.77982,-11.43501,-0.8792709,20.29214,0.1758987,-0.6697772,6.159304,-3.06624,-1.571847,-6.001364,-0.3225962,2.403876,-5.056412,1.178284,-2.545222,-6.568456,-11.28124,2.671741,0.3615198,1.338584,-0.1822394,2.766216,-1.891126,-5.402015],[-2.505742,2.504889,-10.1004,10.09972,6.394575,-6.396017,2.773479,-2.774409,-4.728714,4.727547,1.972012,-1.972592,3.697241,-3.698439,-3.8016,3.801293,4.873992,-4.875406,14.07725,-14.0788,-4.151369,4.151015,-3.220823,3.220117,4.067653,-4.069637,-5.456498,5.454528,10.87735,-10.87979,2.198018,-2.199207,-3.659052,3.658454,-2.996772,2.99649,-8.811408,8.808899,-4.500316,4.499894]],"layerNodeCounts":[13,20,2],"learningRate":0.2}