{"momentum":0.1,"batchSize":1,"outputActivation":"softmax","hiddenActivation":"sigmoid","weights":[[],[2.074471,-4.699448,30.71588,-2.675552,-4.582119,-2.262505,2.404481,-3.276515,7.229632,-2.750938,1.545648,4.022586,22.63064,-30.21181,-11.63758,3.653937,-9.901148,-5.985116,-28.24781,-3.698859,7.123312,-1.439396,23.27958,2.574854,0.8382449,7.080599,4.574691,-11.74376,-3.243001,-6.062537,-6.379008,-2.342249,10.87447,-23.46499,-1.437504,8.343431,3.733103,6.886252,-17.43492,10.50951,-9.125513,2.113209,-15.99297,-1.572414,-0.2787375,-1.423485,-0.8917264,-7.873479,-5.728894,-4.253375,-5.692412,26.21202,0.5791826,5.295779,-0.863328,2.479,10.9901,-22.05705,-0.2860817,1.024333,-9.247428,11.39606,-8.924958,-0.6906433,0.7751878,-8.627723,14.27823,-4.476476,-8.464393,2.723413,-17.22151,20.71625,-12.05184,-1.325991,-1.197795,5.320629,8.952133,-15.87055,3.530786,24.95055,-15.06357,-3.829455,14.30658,-6.065249,27.19569,4.782331,-13.28374,26.64726,0.4952305,-1.336264,-3.142338,4.959123,7.361336,17.05496,19.5475,5.446439,-11.56868,4.992334,-9.511664,2.028228,17.00047,15.58783,-1.688793,9.535739,-8.514024,3.876107,7.086685,-5.80026,4.70639,-1.702984,-7.558309,-9.007252,5.33278,-9.859276,6.095151,-3.322219,-12.40542,15.78003,25.20754,-4.76108,0.7331302,-6.152098,-0.1814483,-10.76527,-1.861163,-9.812937,19.20925,5.188947,18.95564,-4.8202,7.192518,-0.5667819,-8.715803,9.493217,9.479901,-14.27812,2.840692,8.173328,5.625278,5.075479,-0.1516922,-9.765104,1.342548,0.5137049,4.182002,-0.8131799,1.182649,-9.273378,-2.460845,-0.8574144,17.34697,-1.390976,2.130017,-6.20788,2.059489,8.509792,-4.389542,0.2349878,3.979879,1.38569,0.9252896,-3.539527,0.2280584,-5.051375,-1.621059,0.6699857,0.04128812,-8.914676,-0.8698713,-0.4293385,6.163219,6.528706,0.0138129,-1.791278,-2.287083,0.3227207,-1.322357,5.369923,-3.691593,1.51677,-3.016949,-4.318339,-0.4254134,-7.20247,4.884429,-1.714085,-3.529605,4.717095,-2.974948,0.6315671,-1.804604,-2.611477,-5.143829,-4.347817,1.001284,-1.912803,0.4786853,4.084056,-6.02266,-1.214,1.302325,2.475846,-0.04438625,-2.690896,2.201778,-10.11451,2.64325,-2.429754,-3.901341,-0.3602881,-2.68394,0.7015043,3.895283,-2.633374,-0.3348527,-2.545866,2.415112,2.612133,-0.1962851,1.031308,-3.966449,8.7632,0.4952278,-9.582438,-0.7836913,0.5128775,0.9847051,2.110703,4.321733,-0.7096995,-3.635675,1.953489,-0.6961884,1.566075,2.802796,0.9682305,0.04003884,-0.6723756,0.928722,-0.3955316,-1.923303,-0.005432415,-0.09052101,-0.8684706,-1.792901,7.201796,2.340672,5.793245,-0.4492092,-0.7704516,2.252493,-6.021463,-2.003871,2.844614,2.410014,2.981383,-2.692091,0.2290931,-2.30581,-2.37124,6.553138,-14.50279,-16.11735,21.00531,1.315129,6.590428,-6.960095,2.275949,-8.624356,-10.3373,-4.835417,-5.038291,3.022162,-5.64672,-36.03085,-10.02808,-12.13039,-16.48508,0.697557,-8.796864,-3.653568,11.64638,20.21632,3.880187,1.36779,26.11442,-11.72032,1.715173,-14.792,24.6066,-13.98487,-24.83748,2.147087,-5.996114,6.843759,19.6512,0.5625674,-9.967302,-0.2738269,20.21455,-23.86992,11.47682,-3.803238,2.117331,4.672316,-1.274968,-9.241546,-21.2828,3.90361,5.876808,20.46282,11.11237,10.19486,-9.361291,-23.41622,2.763234,-6.795259,27.65099,16.30879,-13.14642,-0.5837737,-11.20123,-10.78877,13.30666,-4.169618,18.87334,-3.714652,24.9965,6.318068,5.369521,4.46973,5.78266,23.70576,-9.839418,23.56551,-3.471823,4.81935,-11.3451,9.632401,7.595112,1.647282,-19.36049,10.88282,-11.21955,-19.31516,-3.067631,-5.540206,-12.6111,-10.17954,-9.058458,-9.241091,-18.28049,-21.06106,6.963665,-18.6584,-23.88638,-10.84519,3.463162,-6.808691,10.09914,-18.63349,2.066605,-2.587986,-25.30876,-15.82476,12.29305,-5.379638,-18.87623,-4.309278,6.43851,-2.105666,15.64689,8.555194,-1.788281,5.91102,-12.26406,-1.082987,10.12144,11.11732,-0.01338784,2.247608,-9.601835,-6.121202,6.755192,8.314631,24.71866,5.260324,3.522034,0.6785318,14.7128,-3.397524,13.47746,-7.584939,3.709394,2.029737,-4.955998,24.51552,-16.1722,16.7275,-3.262983,1.0228,-0.781837,-0.9289713,4.357918,0.5389376,6.860444,4.002174,3.974117,6.080313,1.150558,3.290717,0.5319887,3.241422,0.5814973,-3.401577,-0.1478917,0.5742877,0.4352809,9.331506,-2.912642,0.5879306,13.61535,2.063549,6.309747,-2.66693,-3.68078,1.923468,2.303242,-10.91496,1.461006,-6.783177,-1.036827,-1.528688,-0.1591922,-2.142643,-8.972289,1.407207,1.736595,14.39248,6.182176,-3.439829,-2.463515,-0.8588744,-0.6184939,-0.7907534,-4.226522,3.109241,-4.899316,10.0085,-2.347947,-3.259832,0.3048438,-1.02859,0.363124,7.232149,0.9170639,-7.476087,-3.900697,-13.93667,0.8054751,-7.24727,5.268849,-2.916735,2.940782,-0.4966308,-0.6339146,2.094493,11.64842,-6.128299,4.305009,5.139976,4.920866,-2.290001,-2.105542,-1.627823,-3.301813,-1.307031,2.096959,-9.271617,10.57339,9.510432,0.8744037,6.191153,-1.40264,-1.468124,0.352247,-0.4665317,20.48487,2.017648,-1.535671,-14.06846,0.4984103,-0.6323072,4.03104,1.293463,8.046409,15.25916,-0.03600062,-6.943763,-5.474999,0.2510753,8.142055,7.968994,7.232476,3.87776,-8.055725,-3.572229,14.53869,1.986912,-2.384729,-3.046078,-2.507128,2.376421,4.57095,-7.344025,-7.379787,6.474028,13.54076,7.17687,1.264998],[13.84852,-13.85237,4.967225,-4.968206,-5.696673,5.694401,6.256407,-6.258722,6.658735,-6.659664,4.684912,-4.686634,-7.922614,7.921918,-10.6698,10.66768,-7.657214,7.656683,-6.995084,6.993739,4.342112,-4.343127,7.173051,-7.174088,-5.355548,5.354134,8.39743,-8.398774,8.864557,-8.8662,-3.158166,3.15689,4.311983,-4.312974,10.49986,-10.50233,-12.16599,12.16409,8.046541,-8.049109]],"layerNodeCounts":[26,20,2],"learningRate":0.2}