{"momentum":0.1,"batchSize":1,"outputActivation":"softmax","hiddenActivation":"sigmoid","weights":[[],[-0.3185236,-1.965023,-2.249743,1.456765,0.9173138,-0.7720299,1.103912,-0.09675668,-2.57092,-0.8870925,1.119357,-1.067372,-0.5341461,1.804318,2.541733,-3.163635,-1.424587,-2.819462,-1.649372,-0.8990662,-0.2321054,-3.874943,-2.497224,1.428642,-2.18974,0.5962035,-0.9494436,1.045756,-3.54075,1.126957,-0.0343835,-1.539608,0.06806724,0.8014074,3.981901,-1.966575,0.7956063,-1.359506,0.8508577,-0.4804161,-1.021145,-3.235914,-1.182679,1.581357,-1.534314,-1.407555,-0.7157847,0.3529719,-1.605372,-1.15552,0.5620959,-2.705481,2.055536,-0.3601419,0.9031329,0.06080313,1.308005,0.0885359,-0.6222752,2.020626,-1.836007,-2.041566,-0.5641963,-2.364384,-1.420304,-2.594598,0.214277,0.8511184,-2.009541,-3.015352,1.421213,-3.316747,1.288555,-0.752734,1.522026,-0.5275242,-0.2659756,-0.5599209,-4.259211,-0.3466762,1.127695,-1.855432,-1.733527,0.8133591,-1.750315,6.26481,1.824502,-0.9798356,5.526351,-1.995716,-2.693744,-2.027314,0.2046351,2.970978,0.04042627,1.593922,-0.1650733,1.662207,1.804745,2.79533,-1.702556,-1.452344,-2.259392,-2.910579,-1.621914,-3.02692,0.8394983,-1.301672,-5.773053,-1.407543,1.898417,-1.427079,1.114066,0.09805147,0.07308299,2.110414,-0.7821925,-0.4500282,-3.292185,1.894705,1.494448,0.272321,1.791507,2.761766,-1.511534,2.934467,0.01548559,0.5977731,-2.262636,1.464115,-3.026133,0.318374,-0.1360142,-0.3733764,-1.818545,1.474446,2.683658,3.735563,1.032332,3.144364,-0.4308552,1.568362,-0.6025901,2.171414,-2.255165,1.607795,-0.6640232,-3.788499,1.389201,3.610648,-0.6625934,0.2470133,4.905397,-1.746638,-0.2648544,-0.7429796,-3.828129,0.2396875,-0.1440067,-0.410765,-1.219085,-1.137532,2.567854,-1.77303,-0.8173957,0.05129887,-1.768693,0.4712818,-2.100345,0.1288984,-0.1860754,1.906538,-0.4830241,-0.91646,-2.033691,-1.076407,0.5405126,-0.811201,-1.825427,-0.3170294,-1.056498,0.7547905,2.651385,-0.8787025,-1.403773,2.241422,0.6309909,-0.6890395,-1.170295,1.646609,-0.731115,0.9132326,0.468843,-0.2225972,0.3421928,0.937373,2.085909,-0.882969,-0.02754415,0.4415877,-0.9293165,-0.8329197,1.775488,-0.2797355,-1.450642,1.45618,1.124132,0.583209,-2.322342,0.5612898,0.00864507,1.06476,0.7340944,0.1189163,-1.056198,-2.069942,-1.15745,-0.9072741,-1.497969,1.409076,0.7798929,-0.4306261,1.935632,-2.277233,-2.40968,-1.75283,0.8623042,-2.025647,4.297668,0.06017388,3.053991,-0.7697486,-1.066901,-0.04547622,-1.359983,-1.464945,1.522825,1.73505,1.856382,-0.9564294,-0.7085513,0.8612441,-3.062247,0.544795,1.430431,-2.271414,0.1308157,-0.8792046,-0.4275369,0.353188,0.5998453,-2.449801,-2.172454,1.619496,-0.462215,1.78033,1.330155,-2.986556,-1.641732,-1.653516,-0.6367308,-2.227092,-0.6490698,-1.997573,-0.6534854,-2.24542,-0.6992323,-1.859049,2.928169,-1.226435,4.221139,0.7275276,0.8569865,0.1006792,1.184696,-1.132134,3.037207,-0.02264297,2.70019,-0.3609944,1.533857,1.034935,-1.95003,0.7035681,3.5481,0.6113201,-1.025211,1.17837,1.842957,1.705465,-1.009744,0.5829877,0.5524312,-0.8799172,0.02517116,1.758487,1.34855,-0.1314743,1.676523,-1.395279,1.560522,0.7295341,-1.746987,2.227847,-0.3933499,-4.167702,0.5589983,0.8610294,-0.2817175,-4.155979,-0.8804592,4.179093,-1.418139,-0.1162124,-0.3940184,-4.394271,-0.726339,0.5871108,-0.704794,-3.415467,1.238151,-0.2897782,2.050156,-1.082312,-2.955912,-0.08154283,-0.2636392,-1.120299,1.817363,2.056018,1.280007,-0.7393949,2.241042,-0.3996304,-3.562303,-1.343846,0.2869869,2.691795,-0.4803011,-0.5977915,0.90944,0.9320497,1.771348,-0.2314434,-1.915286,-0.9623886,-0.4696168,-0.7500467,2.639449,0.8907956,0.6340747,1.295929,1.998144,-2.648139,-2.058158,-1.484751,0.6146712,3.783275,-0.1295909,-0.1680746,1.688772,0.7345707,2.68309,1.782897,-2.46262,0.1622745,1.589536,-2.791703,1.035439,-0.1262697,-1.059198,-0.07316475,0.6623993,-2.445834,-4.451147,-2.108794,3.578852,3.477118,1.564646,0.3862858,-2.168917,2.491569,0.212407,-1.557766,0.3295239,-1.937393,-1.029489,-2.853718,1.950632,-2.231613,4.198297,3.071816,-2.736238,1.763374,-0.6162413,0.4366397,-2.589711,-2.271628,-0.207057,-0.2061018,1.181783,-4.802777,-2.183352,1.912551,-0.4941331,-1.697028,-3.938982,-4.197788,2.288633,2.04303,-3.520248,1.055466,2.549658,-1.339245,0.4588837,1.57331,-0.2085437,-0.430989,-1.280883,0.2070998,-0.261045,-1.289972,-1.408731,-2.366899,2.396708,-0.488233,-2.21705,-2.226774,-1.124929,0.873592,2.187075,3.098826,0.2028195,2.03517,0.9535089,2.889581,-1.92295,0.2868545,1.773405,-0.8056434,-2.770663,-2.903563,-0.9903778,-3.558882,-0.3224522,-2.403862,1.464015,-1.422439,3.994259,-3.268346,1.681648,2.81662,3.766527,1.98479,5.271533,-0.4593472,-3.990535,-4.286687,1.656824,-2.927202,-1.028073,0.3211224,-1.310537,-3.389326,0.7326748,2.31793,-0.4560452,3.118295,4.479825,4.922164,1.628332,3.410064,0.3941391,1.572531,-2.82924,2.36261,0.856437,1.259895,-3.491467,2.511392,4.691218,4.6303,1.267734,-1.944213,-1.677079,-2.042898,-1.054019,-4.277164,-0.8732502,0.09985408,0.4787941,1.731326,-5.809349,0.142697,1.109551,-2.117062,-1.567318,-0.8339034,1.81711,-4.896542],[3.593342,-3.593509,3.147454,-3.147716,-4.002619,4.002384,3.819169,-3.819358,-4.677646,4.677219,4.925493,-4.925767,-3.710944,3.710613,6.275646,-6.276056,-6.27829,6.27785,4.094085,-4.094312,-3.855624,3.855351,5.147201,-5.147613,3.718148,-3.718341,2.946599,-2.946841,4.168993,-4.169224,-3.751642,3.751305,5.062633,-5.063069,-3.828647,3.828439,4.158216,-4.158462,2.547221,-2.547394]],"layerNodeCounts":[25,20,2],"learningRate":0.2}