{"momentum":0.1,"batchSize":1,"outputActivation":"softmax","hiddenActivation":"sigmoid","weights":[[],[0.6291119,-0.2711928,-1.04652,-2.349906,0.5203624,-1.41598,-0.363963,-0.1792206,1.317647,-0.1569939,1.636037,1.306497,0.5312628,-1.482914,-1.258403,-0.1690858,2.077193,0.1631331,-0.6930543,-1.077575,0.8862581,0.8934565,-0.8809437,-2.237095,0.6535893,-0.10922,1.026918,1.615404,-0.708717,2.11319,1.37093,-0.07637426,0.777512,-0.6153269,0.1221226,0.5470853,2.272212,-1.274955,-0.001919128,-1.024612,-1.107134,1.130421,0.04440732,-0.9516294,-1.219674,0.6028109,-0.7338642,1.756591,-0.8122197,2.000867,0.105211,0.5713537,0.2136334,-2.435446,0.7143138,0.7197627,2.120941,0.2000546,0.648604,0.4645864,-0.6060251,0.2394134,-0.05585821,1.569705,-1.844647,-1.164601,0.8193501,1.131846,1.786289,1.94966,-1.955188,0.4296077,-0.7266624,-0.3527286,-2.502808,-0.472065,-0.8452769,0.7113305,-1.317883,-1.316176,0.4171892,-1.621323,0.6066671,-2.626109,0.7930578,-1.753586,0.5725406,-0.4734899,0.1728598,-2.517281,0.2630667,-1.274783,0.6387382,-2.064373,2.579082,-0.1421876,0.8364252,-1.88505,2.237916,1.080217,-0.9569432,0.03134647,0.4948594,0.04380682,-0.6174887,-0.1631664,-0.6111399,0.5524521,0.2317048,0.3705211,-2.023493,-0.1751413,0.2975804,-0.7648903,-2.688597,-0.1501287,-1.339998,0.8979628,-1.673797,0.3677932,0.6574123,2.18694,-1.380049,-0.7612315,0.6010252,-0.6621891,-0.4633976,0.6614341,0.5148879,0.4963499,0.8654654,1.002343,1.009439,-1.070462,2.158216,2.417383,-0.467538,-0.9498248,1.358994,-0.5283952,1.161413,-0.8072853,0.268062,0.7740079,1.625757,-0.1408314,-0.1737736,1.271883,0.5225411,-0.1722464,1.166406,0.2415477,0.835846,-0.2694493,-0.5091956,-0.3920771,-0.5676225,1.175066,0.366791,0.6362667,1.32188,0.5856299,0.8670336,-2.046158,-0.3501901,0.1741155,0.714802,1.96226,-0.200999,0.3514245,0.2636003,-1.106742,0.3190341,0.01121571,2.087723,-0.4330719,0.3476077,1.192179,0.8829266,1.089135,0.1615745,-0.2241881,-0.311839,-1.035247,-1.159838,0.8964238,-0.8189124,-0.1506433,-0.6674002,-0.6261928,1.188374,0.1951933,0.5056632,-1.323008,-0.3823906,0.5698308,-1.884131,-0.6382666,1.028032,-0.6125271,0.1648809,1.966537,-0.8016235,-0.6646042,-1.656614,1.411855,-0.5221484,1.45594,-0.05708823,0.2680759,0.4927793,0.2217948,0.2696403,0.7808105,0.6733459,0.727072,-1.499591,1.173024,0.1950169,-0.1178483,-0.9525495,-0.512161,-0.2385861,3.632268,-0.2943632,-1.183017,-1.101999,-0.4536081,0.2610356,-0.6511141,0.3607684,0.5806242,-1.46539,0.08219439,-1.539815,0.5746519,-1.490597,-0.5728566,-1.003893,-0.6672133,0.2981386,1.305302,0.4034268,0.6980513,0.6414615,-0.9720953,-0.04838921,0.3454409,0.6849959,-0.3758869,-0.724704,-0.6594803,1.022868,-0.6342472,-0.9508662,1.245794,-0.8199202,0.2818012,1.501822,0.418695,-1.004544,1.099367,1.200792,3.54908,-0.06222313,-0.2389435,-0.7593535,0.6553674,-0.5770942,-0.8215828,1.28846,1.146824,-0.1198729,0.5669895,-2.54484,-1.117395,0.3339145,-1.78599,-0.756447,-1.237062,0.718252,-0.904344,-0.9137575,1.45061,0.0351207,0.08563492,-0.7309257,-1.976728,1.324093,-1.507999,1.068752,-0.5440813,-1.093698,0.7250183,-1.595063,-0.6388842,0.5893922,0.05831231,0.5564365,1.07734,-0.817068,0.6628264,-0.8801431,0.7712548,-1.089501,-0.8784527,0.2200742,-1.544732,-1.490767,-0.5327626,1.245156,0.2525344,1.383762,-2.402047,0.4164481,0.2982548,0.8182465,-0.987844,-0.698105,-0.4994333,-0.5793242,0.790004,-1.256866,-1.47186,2.200692,0.9535194,-1.358056,-0.3119976,1.255963,-0.4603502,0.3271649,-0.9630325,-1.069465,0.6562155,0.4038312,-0.1390088,0.1372623,-1.030812,0.2661336,-0.2371893,0.9977022,0.4460852,-1.246276,0.4264309,1.793377,-1.242222,0.287294,0.008386885,0.2790554,-1.981909,0.8174385,1.012875,0.1741357,-0.2145771,0.9015483,-1.616563,-1.146144,-1.683388,0.1950034,0.8585958,1.161442,-0.3458937,0.7029238,-1.081854,0.8983479,0.2458652,-1.504406,-0.4866207,0.4592361,-1.76283,0.9340563,0.210097,-0.2417186,1.135321,0.9622647,-0.3520948,0.4897972,-0.7646171,-0.8526924,-0.8706517,0.1457301,-0.9500753,-0.319744,1.876301,0.3246049,-0.8823812,-0.31974,-1.650413,0.2659903,-0.5191524,-1.186962,1.179123,-1.411634,0.428007,-1.787869,1.784848,0.7914237,-1.390827,0.4747742,-0.7451721,-0.1777326,2.665574,1.103024,-1.372553,1.063486,0.5026199,-0.3453919,0.1758036,-0.9881611,-1.300222,-1.068769,-0.4596125,0.5832888,1.335836,1.497494,0.6302133,2.675709,1.093907,1.785964,0.4183801,1.116671,0.2496925,0.2790448,3.022505,-0.3668598,-1.128101,-1.174625,0.3761295,-1.550526,-0.009692253,-1.730092,0.1434863,-0.4495472,1.313195,-2.013723,-0.2536324,0.04438531,-0.6130754,0.2759008,-0.8575681,-1.96189,-0.3477626,1.255009,0.4311975,-2.195996,1.914011,-1.040236,-0.5644899,0.4332053,0.9555155,-1.777937,0.1810857,-1.354125,0.7040122,0.1183993,-2.627192,-2.155057,0.04578668,-1.606626,1.280434,1.332019,0.5399524,0.9963763,-0.3489313,-0.3459703,-1.598503,-0.3578821,-1.648067,1.196685,0.3555881,-0.6347228,0.7323132,-1.225314,1.323753,1.741138,0.9437713,-1.577824,0.4328664,-1.257081,-0.04683713,0.4295573,0.831682,0.8822809,-0.3628804,0.6237073,0.9098385,-0.9233924,0.008696943,-0.03329223,-0.8170181,1.194062,-0.04904792,-0.7999291,0.4766154,0.6869974,1.672322,0.6794995,-0.1723194,0.9583351,-0.1461357,1.175519,-0.1394484,-1.441173,-0.6019752,-0.8790444,-1.056845,0.4510433,-1.03612,-1.499601,0.9600527,-0.3404863,-0.5831336,0.3572807,0.699476,-1.451204,0.1815787,-0.5682027,0.375583,0.1104283,0.02013928,0.7720072,-0.2685715,-0.4512658,0.630531,0.06325036,-0.6783615,1.416815,0.617178,-1.107565,2.275036,-0.8828967,-0.9696534,0.546283,1.738243,-0.7657068,0.9763715,-0.6383631,-0.7366043,1.205897,-1.00098,0.9756711,1.331346,-1.256056,0.873252,-0.1464735,0.976544,0.1848494,1.222903,0.1287369,1.719682,0.525413,-0.2021508,1.351047,-0.5342628,0.3315121,-0.310455,-0.9132488,-0.03484369,1.046834,0.2372743,-1.019145,0.7986803,0.8434165,-0.3401896,1.596592,-1.143952,-0.8311912,-0.7328528,1.325457,0.1449073,-1.229947,0.371025,0.8710104,1.340273,0.242035,-1.018915,0.1792542,-1.290608,-0.5761037,-0.07091664,1.581384,0.7396929,1.082906,0.6744419,0.3018019,1.120056,0.9610984,0.01257321,1.244116,1.247883,-0.8976668,0.5044439,-0.6355556,0.6623494,-0.6444775,0.8314265,-0.5748042,0.5545601,0.5842642,0.6062156,0.7824082,-1.073836,-0.8441501,0.8438776,0.9733818,-0.6354668,0.5769258,-1.441083,-0.797857,-0.1449843,-0.7000203,0.7095067,-0.8937751,0.529441,-0.1647145,-1.362341,-0.0430712,-1.005897,-1.654986,0.9266176,0.1166099,1.009269,-0.5451978,0.5463654,-1.108837,0.3637537,0.2952637,0.8435833,0.3531007,2.597426,-0.4919057,-0.3496099,-0.8862471,1.978273,0.4367095,0.3632245,-0.2702133,1.302965,0.4064161,0.1865858,0.9662071,-0.7500873,0.2894336,1.278931,-0.03100492,0.01679707,0.7897344,-0.1780758,0.5526922,0.8526169,-1.806122,-0.4701225,-1.549094,-0.01907463,-0.2210893,-0.759435,-0.1379593,-1.515908,-0.2967336,-0.04604372,0.9231482,-0.6213726,-1.245159,-0.6251785,-1.47178,-0.09826858,1.488004,-0.5942408,-1.159161,0.2895744,0.5592393,1.243742,-0.1192748,-0.9880736,0.8792098,-0.1862286,0.6093054,1.262886,-1.361721,0.5700332,0.1760487,-0.4161392,-0.8660876,-0.7807906,-1.658072,-1.430109,-0.3469177,-1.735089,-0.8129406,-0.8335323,-0.162933,-0.7078699,-1.71747,0.7962048,0.641915,-0.8343945,1.654343,0.02568028,0.4317812,0.07431617,1.444075,-0.5582282,-1.247842,0.9047182,-1.390379,-1.672299,-0.5138244,-0.756143,-0.5673542,-0.121914,1.578232,1.354638,-0.3208493,0.4230632,0.6813724,0.3256347,0.08281392,1.704495,-0.9134248,-1.214773,0.46813,0.4715325,-1.40108,0.1076993,0.7146389,-1.035046,0.8948188,-0.6401856,0.4265712,-0.2630876,0.08159421,0.8034443,0.3577127,1.591334,0.0164484,-2.283803,0.3460135,-1.400227,-2.13254,-0.3096313,-0.7061441,0.2173203,-0.126728,1.357494,-0.1272067,0.4382867,0.962515,-0.7566893,-0.9786279,1.659075,0.8079808,1.511173,0.3816272,0.1845026,-0.05017341,-0.3600572,-0.3856349,0.8233429,-0.3244304,-1.050004,0.9556139,1.495055,-0.7910328,-0.9021198,0.5475435,0.5467864,-0.6550808,-1.813087,-0.252676,0.1859733,-1.093475,-0.6979164,0.718631,2.188197,0.003278357,-0.2109364,0.8505244,-0.3965992,-1.073044,0.6755933,0.9104707,-0.8284839,-0.6590474,-2.21043,-0.9472618,-0.6833912,-0.570525,-0.2707376,-0.696417,0.3344852,-1.256974,-0.8302231,-0.1558616,0.8757672,-0.4696502,0.9104405,-1.634581,1.50765,-0.438454,1.52188,-1.639282,-1.034601,0.91895,-0.9536602,0.971525,-0.8170666,0.3671516,-0.5887074,0.1326714,1.607775,-1.558218,0.5344489,-0.3999846,0.5395564,-0.5840224,-3.009502,0.06214053,0.5910452,-1.860869,1.355962,0.6877994,-1.815421,-2.179858,0.9069914,1.159229,-1.132587,0.6260881,-0.9226084,0.7202318,-0.4632908,0.06948269,0.1429037,1.340277,-0.2798764,-0.3361376,2.368872,0.1329962,-0.8069809,-0.6984333,-0.7988166,-1.422059,-0.6816497,-1.455369,0.4233876,-0.1595691,-1.455052,-0.5818561,-0.5470598,-0.4304808,0.8934333,0.09162066,-0.1868231,1.414115,0.8396528,-0.511221,0.1965114,1.742045,-0.8219929,1.079678,-0.3356741,-1.541014,-1.250157,-1.22061,2.045177,0.7387145,-0.1903093,-0.1548192,0.6180396,0.1176705,0.897979,1.535824,0.1497552,1.374895,-0.536353,1.514049,2.640674,1.36785,-0.2014598,0.2546331,0.02547841,-0.7295579,-0.6006517,0.4476549,0.644354,0.6266526,1.083408,-0.5149274,-1.35039,1.215741,-0.2976269,-0.1792014,1.143998,-1.244147,1.526888,0.5858563,-0.8683739,1.648436,-1.118566,-1.13517,0.07464596,-0.3709849,-0.9543933,-1.953236,-0.3942614,-1.623995,0.8757006,0.5545478,-0.002540636,-1.853666,0.3467371,-0.7503867,0.6546571,-1.122098,1.3054,0.6914565,1.49879,1.290476,-0.531914,-0.4644688,-0.8523434,0.07027075,1.216982,-0.01430479,-1.417664,-1.31173,-0.9530094,0.9552894,-0.8155803,1.310358,1.69433,0.430636,0.8164014,0.02558482,0.9366814,0.5993869,-0.8396645,-0.09523144,0.6776534,-1.106355,0.9577054,-1.076606,-0.5290368,0.05324365,0.9624829,-1.365164,1.816851,-0.1898025,-0.4130531,1.057327,-1.955723,-0.09605708,-1.206119,-0.6108301,-1.03982,0.169356,-2.003288,0.7423494,-0.7363946,-0.9028827,0.9370685,-1.046315,-0.6419487,-0.3913398,1.702234,-0.2562003,-0.229578,-1.251333,0.5877687,-0.0835534,-0.6813937,-0.4532135,0.4609131,0.7221413,0.2867221,-0.09639268,-0.06571487,1.030054,0.8979231,0.04227626,-0.2191756,0.8319291,0.6654241,1.879387,0.7335286,0.1004762,1.71951,0.6529077,-1.929814,0.0458472,1.119229,-0.8346056,-0.9464548,-1.201907,0.9215075,0.5466391,1.838812,-1.192968,-1.536572,1.04772,-0.5581735],[2.20202,-2.202144,2.596085,-2.596252,-3.542823,3.54263,-3.85137,3.851213,-1.900927,1.90082,-2.244769,2.244627,0.7250102,-0.7250776,2.267037,-2.26718,-1.825173,1.825076,3.602977,-3.603163,3.382701,-3.3828,1.303259,-1.303368,1.675509,-1.675588,-2.919546,2.919379,3.218492,-3.218606,2.998164,-2.998348,3.269412,-3.269585,3.564743,-3.564896,2.55913,-2.559249,-2.141937,2.141795]],"layerNodeCounts":[50,20,2],"learningRate":0.2}