{"momentum":0.1,"batchSize":1,"outputActivation":"softmax","hiddenActivation":"sigmoid","weights":[[],[22.06393,-8.810178,-1.762368,30.18558,12.05978,-6.210885,0.7495006,-5.09677,50.12529,-1.848874,-14.14135,1.22319,2.618691,4.066978,0.3933131,-45.16425,3.57478,16.89372,19.03535,-1.842835,-4.31066,11.447,-6.404244,-20.35952,9.574493,-9.459112,-0.5727426,5.322654,-7.337584,5.146297,-0.05178626,4.973697,3.360892,-0.3274183,6.073637,-37.85965,1.63745,25.51172,-16.90606,2.135343,19.65824,4.971951,-14.80335,9.704242,1.319452,-0.08204661,-1.785712,19.90741,-24.51959,-22.50133,-0.5553871,0.6140885,11.32333,-7.243985,-9.620209,35.48821,-3.68514,-22.64396,22.57784,0.3978009,6.89154,8.037643,-17.59252,-14.95364,-25.60921,10.47139,1.696797,17.94123,15.8933,-3.534723,5.273292,-0.1743166,18.98244,1.611142,-2.463106,42.62791,-1.104878,-16.08582,-14.13244,-4.396269,5.687866,-0.1504273,-2.807096,14.39118,7.294879,-39.64326,0.2126091,9.349976,-10.5063,-27.71118,1.4045,-11.19266,8.93169,4.882292,-35.27665,-31.39159,0.4603239,-17.66881,18.4548,26.08536,-23.90626,-47.90598,-8.086047,-4.061086,-2.107672,-2.173556,-0.5662054,-4.025148,3.831813,7.625332,-6.861641,12.18285,-9.013726,-1.666747,2.408967,-1.687119,9.71799,14.42111,-4.693084,-11.73129,-3.511618,6.85955,-5.327248,-5.264205,18.42941,-4.248545,-4.822642,8.790164,-41.54989,-2.346455,4.975629,-2.694045,-5.352228,13.91103,13.28456,3.548744,-0.07594655,-3.441841,-29.90057,-5.437689,2.601125,1.135326,-1.520933,2.040074,-0.9791837,6.001068,2.538181,-0.3741522,-5.898042,0.389156,0.9165205,5.269669,3.252599,-6.42918,-8.383025,-4.284678,-12.83029,-8.712166,14.39558,5.065279,-3.710255,-5.109939,1.845313,1.29467,1.348921,-5.76026,-2.977296,-3.839021,-0.08516019,-3.518929,-6.39908,-17.19656,-0.4817114,19.29243,-1.02626,-3.403877,-0.3042287,-4.645958,4.390733,-10.23293,-0.1265295,1.479051,1.264006,1.985453,-2.014147,-3.018159,-4.993183,-3.370438,-7.722282,-2.631441,6.167097,-8.89719,5.498582,4.779265,-5.5334,-4.831754,-13.47182,-3.441113,-3.086328,3.881229,1.995027,-0.930894,-0.4116949,1.760197,-7.318406,-0.8232642,0.17056,-1.90645,-0.247747,0.6413587,5.479914,-9.088291,3.263733,11.74382,6.783373,-3.343543,-4.00388,0.6706048,4.162831,1.774766,-1.16338,-1.101026,-2.145163,-2.350318,-14.8338,-8.110211,-3.92952,0.6306251,-2.439059,2.336014,-5.531796,-11.6021,-1.090728,1.568355,1.502491,0.7686091,14.40757,-4.870618,0.7768341,-6.32547,0.9650449,-1.792058,-0.8356437,-1.435038,0.02400505,-7.104123,-0.1686395,0.6791006,-1.256396,-0.1617607,6.556765,3.828356,2.407961,-3.555062,-7.28424,0.140014,-3.604098,-4.372505,-3.326904,-1.192819],[-8.196322,8.18947,-14.33462,14.33003,-4.689481,4.686411,7.036163,-7.03962,3.397384,-3.398862,-3.74304,3.740045,-3.022377,3.02216,15.47483,-15.47934,-10.151,10.14666,14.61957,-14.62517,-3.534489,3.533875,1.399052,-1.400393,3.980454,-3.984086,2.584055,-2.585474,3.407821,-3.411432,11.02605,-11.03007,-0.1214952,0.1207562,5.361797,-5.366012,4.693639,-4.69728,4.897511,-4.898483]],"layerNodeCounts":[13,20,2],"learningRate":0.2}