{"momentum":0.1,"batchSize":1,"outputActivation":"softmax","hiddenActivation":"sigmoid","weights":[[],[-10.02072,-7.420593,2.824296,-3.539901,-7.26556,5.16279,1.772533,-0.6086526,-2.270432,10.60244,10.87956,-2.388522,6.598797,-6.749242,3.680793,4.829826,0.7853491,14.72149,3.53007,-2.850527,-4.4378,-6.447973,2.830751,-1.895546,1.108547,0.00675306,3.777081,0.2574906,-2.490449,4.825826,7.845351,-0.8099718,9.687,-9.064099,-0.6465944,1.067953,0.4294551,11.71715,-3.460935,-2.729222,-15.29854,1.929207,2.397538,-0.215848,6.619408,-6.595874,1.071922,3.617829,-5.194693,-2.912415,7.110171,13.89719,-5.235002,-14.46985,7.182256,0.06362405,-3.943799,11.62139,-9.95101,-1.519925,-13.12876,-2.57347,-2.355555,12.33759,4.053352,4.032551,6.774696,0.6443017,0.24745,-8.309541,5.338187,6.515861,-7.892438,-8.744711,3.226627,-7.081319,-4.312556,4.873853,-10.7898,7.375772,-5.650714,-12.1138,-6.301186,14.2329,7.408649,10.124,8.902937,3.746956,22.77802,-35.39117,-6.488176,-12.81428,1.193068,15.6897,-13.78344,-6.258957,6.137996,6.809279,1.26765,12.28159,-17.31998,-16.0361,-5.532129,-6.469015,0.3153022,17.80456,9.541892,-13.55226,-14.01629,15.2348,-7.118988,-7.517844,7.838025,4.656085,-1.55018,-19.07836,-2.295121,5.660906,1.713905,8.914527,-10.15992,9.76897,1.24883,-22.64585,-4.626987,-15.90083,-16.86069,-11.17926,-2.056449,-26.93985,3.17592,12.50372,-0.9523021,-6.780135,3.703587,6.524007,8.029062,13.18268,1.762419,-5.93639,-0.9280595,-2.853148,-3.798343,-2.589714,-9.379655,2.514608,7.518469,-2.998776,2.015187,3.751918,-8.139318,-3.852869,0.2718122,-2.261465,0.01064477,-2.63278,5.161242,4.185919,-0.1465229,2.00177,-2.940063,6.568237,-2.269322,-13.93375,4.490313,1.699831,6.008854,-4.769075,-3.598042,-7.939549,8.758583,-7.284938,-2.454685,1.33443,-7.657276,-3.344197,5.579713,-4.965805,-0.8234445,2.433671,1.979446,-4.710832,2.060497,4.918311,-3.132551,0.4803124,13.50834,-1.348651,7.90707,-5.454275,4.295017,16.98999,-12.93424,8.334206,-3.574047,4.297435,5.532325,-0.1222099,4.104033,-2.806987,-9.77241,9.032902,-9.100335,2.052818,13.19354,-3.589849,1.437154,19.22646,-3.588562,0.5818127,-7.067152,-1.753007,1.956975,-3.56162,-2.860607,-3.317532,1.007236,0.4568876,-1.046745,5.368179,-3.035318,1.932189,3.058632,2.612211,-8.198265,3.927008,-4.380243,0.08653513,-13.6293,0.8558164,-5.054785,-3.002609,14.54567,-0.8729209,-1.957467,-3.26135,3.332817,23.95824,-4.245643,-2.422517,0.5678325,7.638991,13.43535,0.374532,6.053958,4.002005,-5.483189,-4.337177,-5.043705,-5.052309,-6.373302,4.250215,6.077016,-0.3996491,-4.65083,-4.28681,4.814066,2.030296,-1.684086,-1.581726,10.61382,-0.5826021,1.632387,-5.091211,6.729227,-5.633116,13.29058,3.748346,2.071643,1.422949,3.019975,6.332591,8.349902,-0.1356042,7.022483,-10.89158,-14.79343,1.028003,-24.64857,-9.845213,-2.51987,1.719333,-6.017542,2.93715,4.776868,-16.48921,0.4444537,3.015383,-9.294244,-3.777226,-12.86634,-0.08469718,5.427116,-11.29571,2.91323,1.266961,-0.9468911,0.2084571,-4.513485,12.06894,-4.034306,-13.89772,-1.46207,0.2028437,-10.77462,7.138848,-3.592507,3.054218,1.28862,-4.156851,-4.869589,-5.236868,-8.845903,7.993441,-4.322771,-19.49604,-0.1400191,-16.84966,-3.182598,-15.76569,-14.0322,-10.28341,-6.075923,-0.9914001,-6.426054,9.972024,14.14237,-5.43611,-13.88821,10.80858,9.699016,-9.7598,-2.580864,-8.20404,6.274021,-14.75949,7.023098,10.00402,3.664139,-13.9162,10.78443,1.087775,-10.07554,16.16987,0.6217832,1.989793,5.096118,4.51844,17.15524,8.700655,-11.40009,5.939463,-4.901921,5.945951,-9.354198,0.151545,-16.55342,5.03307,-3.676118,21.69709,2.35475,-1.18665,0.5086453,-10.54566,-4.163109,1.644626,-13.52248,-2.725136,6.536563,-3.558278,-8.235697,-5.71677,-1.587989,-2.235733,-2.060846,-4.994784,-15.84935,0.5950578,9.951085,-4.91856,16.75052,2.457067,1.362108,4.380789,-1.037984,-10.49095,5.352742,-6.378902,-2.53186,1.593124,6.504791,-3.442127,5.246655,3.694219,2.990641,1.900695,-4.263868,-17.77263,6.810609,14.42635,1.006383,-9.339709,8.075875,1.057183,-8.699305,2.614101,9.756734,6.557553,2.182218,6.378136,5.78357,-2.335225,6.98358,6.385148,2.837524,1.026041,4.108619,-4.151521,1.635212,-4.569159,3.343671,6.9366,9.333366,-2.48624,-3.996558,-7.134214,-0.4924399,-6.69971,-1.511013,-3.031821,2.220776,-1.787617,12.71969,-5.757279,-18.48083,-3.095325,5.890054,1.332898,1.234017,1.891994,-5.341822,-3.269473,0.9114341,-7.496322,10.56411,4.196989,5.983402,9.222225,-1.723416,-1.020537,6.908097,5.416382,2.409144,-4.046844,-5.255821,-1.843373,-6.589907,-1.454385,0.5872363,0.1798149,0.5472364,-4.118819,2.023132,-7.806843,0.485785,-5.056807,2.052904,0.3161977,-4.734527,13.17567,-1.072857,-3.693209,-4.500641,3.897339,-2.001456,-1.735658,6.098503,-1.269636,-3.39639,-12.0214,-11.48204,-0.1689195,0.1824225,-3.347104,1.137335,2.230817,-7.10039,0.2937428,-3.654187,2.763737,6.549583,-5.026145,-2.726208,0.6833663,13.19144,1.694867,21.93686,-5.056071,-1.556866,-17.82271,-2.272034,-5.003791,-12.97763,-16.36533,5.704481,6.06317,-3.084085,-2.355518,2.129758,10.4635,-13.70204,2.735526,-2.033937,1.492519,-15.24251,7.132507,5.302796,2.234543,3.735695,-2.943503],[4.010123,-4.011469,-5.863551,5.86273,-4.05497,4.054402,7.090627,-7.091885,3.999228,-4.000503,5.071338,-5.072849,5.961398,-5.963091,-4.819522,4.818948,6.034698,-6.035356,-15.53934,15.53667,-3.813258,3.812212,-5.555054,5.554232,3.50723,-3.508575,5.524544,-5.525589,-4.588047,4.586844,-6.029707,6.028549,-8.166626,8.165587,-7.564311,7.56365,-4.257613,4.256949,7.549621,-7.550557]],"layerNodeCounts":[26,20,2],"learningRate":0.2}