{"momentum":0.1,"batchSize":1,"outputActivation":"softmax","hiddenActivation":"sigmoid","weights":[[],[0.9388314,-2.924565,-0.8596415,-3.255601,2.20055,-0.04287284,0.4572684,3.103427,1.1623,0.4066287,2.038033,-1.049728,0.448085,1.582372,1.789335,-0.6638238,-0.3677672,-0.7869345,-1.473724,4.584112,0.834584,-2.525978,-3.431169,-4.367138,3.286141,0.1973658,-1.328199,2.124537,0.8958928,-1.473678,0.2625531,0.6441645,2.491306,1.898142,0.1493829,-1.420314,-0.8805278,1.196556,-3.100961,5.153811,1.850812,-3.48515,-2.10044,-4.510794,3.551805,0.4298715,0.8443605,2.28784,3.093065,2.194689,1.254223,-2.15067,2.486213,0.3096582,-0.03558654,-0.7484959,1.082128,-1.236555,-0.4794139,6.420773,-2.396079,4.166911,-0.7319455,-1.890812,-2.557324,-3.761087,-3.319031,2.744185,-2.088923,-5.671773,5.933073,1.445423,-0.1855114,-1.036399,-0.1024848,1.088148,0.8640184,2.039987,-1.653397,1.003938,0.387024,0.6349062,0.3869343,-5.324893,-0.5540276,0.4727891,0.2279157,-0.03442942,2.216356,-1.954688,-2.142707,4.94454,1.042738,-1.388463,-3.018462,-0.6097971,1.845033,2.438095,-5.177045,1.64904,-1.85013,4.114984,2.32474,0.7098079,-2.428621,-2.885164,-0.3153917,1.877483,-4.000497,-4.64324,4.800359,-1.582388,-1.084215,2.424607,-0.1486007,-0.9481475,-0.8183913,-0.8712621,-0.5913492,2.303588,-0.2442528,-2.69344,0.005579535,-5.902822,3.123695,4.868257,0.4034137,1.310754,-0.9003221,0.8125444,-0.6875778,-1.693223,3.162388,-0.911101,1.467546,-2.285782,-1.053657,-0.1434852,-3.044463,9.213034,-0.1951446,-3.19352,-2.268013,0.1093034,3.69229,3.653245,-2.322668,-0.2117304,4.196013,-5.001354,4.93757,3.192788,-4.118577,0.6624429,0.8351634,-4.189347,0.3739516,-5.105142,-2.811205,-0.9108516,-2.662825,0.8398007,4.100252,-0.4950712,-1.488849,-4.187822,-0.3425422,0.01088002,-0.856877,-0.00376435,0.4432644,-2.278666,3.214279,-0.2253421,-1.364429,1.633616,-3.19352,1.569074,0.1995158,2.349983,-1.233244,-0.8348006,2.87069,-0.8596067,-1.313001,-4.277618,0.8066272,-1.103159,0.8918569,0.783213,3.403883,-2.229806,1.907599,-0.05164379,-0.1805835,0.8112113,-2.515015,0.1567656,1.203278,-0.08988921,-1.988131,-0.5320723,3.064889,-1.756316,-0.8473859,-3.460743,1.35041,-0.7460715,0.04838251,1.65166,2.600444,-3.974981,1.730108,0.9102421,-2.42517,1.485716,-1.996041,1.876773,-1.909628,2.583994,-1.174813,-1.192051,-0.4693885,0.1305276,2.024696,-2.514992,-3.701008,4.264376,-0.9096437,-0.9712907,1.092107,4.874309,0.03308766,-5.330739,2.353217,-2.647939,1.194709,1.633448,-1.192156,0.946596,2.299965,-2.412889,0.5800332,2.95812,-1.025415,-1.80159,-5.795175,-3.395842,-4.18948,-0.04654731,3.807589,-5.983044,-0.1956607,3.228001,-0.554033,2.359581,-0.6680377,0.9983768,0.5914923,-1.133409,-1.599269,2.31791,1.986212,2.983964,4.071828,-1.072487,-4.102164,4.145735,-0.04871872,-2.209526,3.355142,1.968982,0.418914,-3.660983,0.2636359,-0.6199042,1.321306,2.002387,1.092185,1.566769,0.5970215,2.730414,7.457938,-1.29086,-1.05751,-3.823793,-0.06873949,-3.765846,-4.64319,-3.338142,-2.361388,3.308203,-1.171758,-2.30059,-1.036754,1.704658,-4.563932,-1.902747,-2.775122,0.3675297,2.417141,-2.518372,-1.62439,-3.931001,-4.935079,0.8222214,-2.792137,0.4116763,0.5118247,5.525488,3.177827,2.031106,-1.180848,5.911837,-1.000752,-1.835896,-0.4533159,-0.2579173,-0.1461529,1.378072,-0.2953827,-0.09756464,0.5231906,-2.852544,0.01940509,1.428721,0.6855211,-1.058916,1.752223,-1.826233,-0.04421392,-0.1602446,-0.4540283,2.88573,1.812858,2.513594,0.05062404,1.044688,-2.060006,5.269595,-1.708964,0.9398082,0.09661677,-3.123586,-1.053307,1.959924,-0.7708931,-1.272917,3.622738,-0.2867241,0.232507,-0.7247326,-0.4097793,1.417321,0.9569684,1.018827,-0.7988884,0.1704427,-2.056803,2.975669,-1.493067,-0.8695616,-0.6162806,-3.699512,-1.412746,-0.7237748,0.8880222,-2.43775,0.4122555,-1.45158,1.634874,-0.1329772,0.45128,2.371148,1.647662,0.2998258,-0.7960284,0.1744846,-0.3229031,4.651789,1.913954,-0.266466,2.420631,1.708907,-3.533316,4.507197,-4.394876,3.202429,8.027392,-1.654256,3.439206,1.754072,-0.8949633,-0.405372,1.561823,2.899356,2.02453,2.209087,-2.155098,2.502104,-0.2397394,-0.245129,-4.374704,3.876743,0.7180176,2.866787,2.415499,0.38408,-1.266733,2.37396,0.8233451,2.185848,0.001074558,-3.919369,-3.801434,-4.669209,-3.980327,5.280672,1.890881,5.019916,0.1849216,0.08858299,1.246759,4.433325,-3.090061,3.301191,-3.660434,1.513107,3.696011,-3.257853,2.917957,0.8135002,-0.7747939,2.84049,-0.4392606,0.1911394,-0.7915171,0.815955,-2.323343,4.695133,-1.273822,2.285702,0.182708,-1.937426,0.663263,-3.235822,-1.900469,2.364772,2.159156,1.900007,2.941284,1.522725,0.5027069,-1.35607,0.9515197,1.117677,3.459876,2.487154,6.196721,-2.30737,2.932899,2.907698,2.192164,2.114498,6.314702,-0.9501219,-2.976769,1.065214,5.896478,0.5951966,-1.14035,-0.7827736,2.398897,1.99634,-2.028862,-5.024089,-4.626949,-5.997182,-1.384961,-3.163843,-4.784847,1.71455,-4.530883,-6.697564,-4.73294,-3.442786,-10.53522,-1.039373,-9.257675,7.710946,-1.63249,8.196678,2.083436,0.7331309,2.25358,-0.6459199,-1.035532,-0.9710455,3.205864,-0.9305688],[-8.220519,8.219806,3.553781,-3.554054,6.838833,-6.839236,3.891628,-3.891855,5.801209,-5.801869,6.077749,-6.07828,4.824848,-4.825286,-5.001949,5.00133,-5.806089,5.805525,4.956962,-4.957403,-6.794622,6.793797,-6.281497,6.281067,3.907145,-3.907549,5.847257,-5.847984,-3.354841,3.354489,-3.23266,3.23232,6.134448,-6.135004,-2.303542,2.30322,3.520494,-3.520727,6.999531,-7.00026]],"layerNodeCounts":[25,20,2],"learningRate":0.2}