{"momentum":0.1,"batchSize":1,"outputActivation":"softmax","hiddenActivation":"sigmoid","weights":[[],[0.9665783,-2.135825,-3.258637,-2.619712,-3.702713,-2.586799,-1.091556,5.309122,-7.797159,0.09348927,0.2709356,-1.441875,3.457492,-0.06067559,-5.539156,-2.048256,-0.3300108,-2.225894,-5.238267,7.663159,1.103831,-2.01661,-3.350019,-1.682075,-2.382238,-2.729224,2.299543,6.08722,-5.72411,-1.770305,0.4369237,-2.483238,1.657267,-1.836169,-6.280413,-1.196237,-1.727085,-2.307637,-3.59559,7.783871,2.355336,-2.879249,-1.023083,-4.017668,-4.740835,-1.518202,-0.8066183,4.998054,-5.869071,-0.4767135,-2.743593,-2.544976,2.376831,-2.514678,-4.953537,0.1409187,-2.666162,-1.47035,-4.883379,7.279038,3.096785,-1.075229,-4.001305,2.266776,2.849863,-2.546692,-0.8029006,2.138616,-0.7833968,0.5684426,-0.09224372,5.089225,0.1648785,1.897334,-2.019694,-8.434836,-5.134886,2.600565,1.464422,3.291371,4.479887,-0.9981188,-2.786927,-2.442786,-2.881513,-4.215135,-2.321682,-1.637735,-0.5637222,3.993358,-0.1961098,0.7874175,1.399748,2.890803,0.2044712,-2.370687,11.99617,3.093778,7.523966,-1.903999,0.8658164,0.7939631,-2.795534,1.704073,2.327572,-0.2385686,1.198157,0.6977794,-2.957581,2.605104,-0.8722074,5.510513,-1.216463,-1.068981,0.4940258,-6.663721,-1.054881,2.515401,3.938279,-2.268375,10.87078,-0.3410911,-3.829505,0.1300444,2.558373,5.910209,11.51842,-2.246358,-3.551872,0.05333721,-3.019806,0.9193353,7.933211,0.1827326,-0.2332277,-8.449986,-4.065316,-2.87118,1.311202,5.387911,1.772834,-5.693714,1.876495,1.006085,1.656729,5.132812,-6.769929,-0.7537001,2.465326,0.04065245,2.283449,0.3800159,9.870855,2.69501,5.557609,-5.81002,-5.12453,-8.68792,-1.143815,3.212654,1.838805,-5.0411,-3.020178,-1.005477,3.30423,0.4465438,1.085784,1.702272,5.107971,-1.909699,-3.568242,-2.627625,3.04711,-3.321029,-0.2125636,-2.775396,-2.961473,-3.085307,-2.423348,-1.823243,2.330914,-2.919792,-2.942768,-2.793828,4.894417,3.272887,-2.213141,1.189316,7.775091,-2.693216,-2.562302,-2.179839,3.091692,-3.753715,-1.987864,-2.582169,-1.493059,-1.459786,-0.2262243,-3.601681,2.384754,-3.572651,-1.710597,-0.3482397,5.662576,2.678954,-0.9022918,2.291372,7.934262,-2.182507,-3.8545,-1.190951,2.206893,-4.300307,-3.075978,-2.040775,-1.166284,-3.538316,-2.075942,-1.606028,3.556018,2.752027,0.1265756,4.030732,2.252504,8.273191,-4.692078,-3.365261,-1.721597,-4.33537,3.291351,3.05041,3.222937,-0.09873636,-3.532831,7.786241,-7.392812,3.202597,-2.903373,-1.490934,-0.3003908,-0.5809372,-4.03326,-3.31864,5.713323,1.217323,-1.668433,-0.8530287,4.262757,2.455193,-3.710894,-3.026281,2.217571,-15.61787,4.974103,3.650618,-4.914927,2.913357,-8.903916,-2.76194,1.497975,1.911962,0.2991204,5.711303,3.347721,12.1384,-3.719723,-1.312504,-1.635855,-3.575597,2.121812,1.15762,1.8613,2.089444,-2.541992,6.88583,2.008398,6.159845,-4.787382,-1.869748,-9.987893,2.160417,4.398015,-4.466052,5.447176,3.483088,3.747758,-0.6581755,-3.787299,-1.00148,0.8660575,-6.695828,4.642278,-11.19842,-8.34302,-0.001642462,-6.745787,-4.362309,-5.644801,-1.247651,-8.239518,5.021928,-0.264614,0.4699448,5.001737,-8.484485,1.437544,-0.4114938,-0.863545,-3.092192,-6.820601,4.557167,-2.372489,0.8098517,0.3396161,-3.759036,-4.277544,0.6578155,-3.594904,-0.4138152,4.22072,-1.815229,-0.1375859,-6.915934,6.111083,3.565538,-2.58589,-2.57097,-3.68339,-2.908576,0.8375566,0.6719207,2.289669,2.782187,5.23746,-0.3521364,-2.901695,5.740748,0.9464324,0.4623463,4.323431,-2.720143,0.08502109,-5.943151,4.214823,2.293765,-5.703601,-2.135537,-3.594818,-5.078198,1.640428,-1.476166,1.027027,2.789041,2.281991,1.771654,-3.069468,5.430564,2.290629,-0.4093785,3.629592,-1.146439,-0.3942096,-4.024454,7.0165,3.79128,-5.264155,-2.512407,-2.366562,-3.162838,2.19861,-0.145941,-1.148571,1.006186,3.691622,-0.6805959,-0.8747635,5.653784,1.378814,2.892246,5.184002,-1.235187,5.112413,-1.396952,0.1276228,-8.681367,-4.287025,-3.480757,-3.460104,-1.372462,-2.118916,-4.958094,-0.9137784,1.32764,-1.878342,3.905372,-4.574092,0.05636522,2.177089,-2.892132,1.850921,2.398824,0.8936449,5.350582,3.934102,9.74979,2.575321,-5.825167,-4.925355,5.640882,-0.3519046,5.718126,0.6477473,-2.147136,0.7272711,6.683316,-8.697285,-1.943251,-6.333534,-0.6397812,0.5996544,-3.33654,2.293557,-3.106238,3.715897,-1.238974,-10.22047,-3.49495,-2.943573,1.228818,-1.251626,-2.104029,2.722235,2.323479,-2.399536,1.892875,-1.880425,-4.538541,-5.10701,-0.3519152,-1.789778,4.268985,-2.175246,0.909826,-8.275244,-9.342548,7.432057,-5.586158,8.22763,1.78008,4.237291,7.995553,-3.619378,-1.992462,-0.297138,-7.420845,-0.6283937,4.14918,0.3892541,-1.101305,-3.90592,-9.939851,2.814134,1.481066,1.313499,4.258167,-7.491127,-0.9275829,2.587254,3.437149,4.705854,3.559845,7.633474,-6.346157,1.516886,-2.498981,-4.597278,6.045275,11.39469,-0.6600067,-0.306377,1.492495,3.009353,1.579907,3.513206,-12.47417,-1.424509,2.214378,-0.4370624,1.160224,-2.497091,-1.483365,1.336898,0.9531651,1.654075,1.382056,2.219411,1.091329,-0.7330163,-6.329663],[6.018255,-6.019024,4.697187,-4.697926,4.72251,-4.723264,7.737313,-7.73792,-5.108398,5.107695,-6.931845,6.93092,5.920357,-5.921016,8.911148,-8.912527,6.548312,-6.549046,-4.519311,4.518887,-5.413469,5.413016,-6.714834,6.714168,8.328324,-8.329328,4.370141,-4.370872,5.987216,-5.987833,6.946426,-6.94697,-7.150905,7.150168,10.40706,-10.40775,7.187854,-7.188535,-3.816321,3.815807]],"layerNodeCounts":[25,20,2],"learningRate":0.2}